cell_line,bias,f0,f1,f2,f3,f4,f5,f6,f7,f8,f9,f10,f11,f12,f13,f14,f15,f16,f17,f18,f19,f20,f21,f22,f23,f24,f25,f26,f27,f28,f29,f30,f31
22RV1,0.0036592657537241175,-0.09888950144022973,0.0032696976539093262,-0.02355786807813255,0.11452491114566596,-0.062387480855502254,0.09282169593185814,-0.10197245138952488,0.1064293411121399,-0.0317011136956313,0.08379046773281089,-0.19381533458478697,0.0923557157984143,-0.02531178957153151,0.15072802257503637,-0.07400593465197598,0.10335999421204875,-0.04200923838905713,-0.1359069911764301,0.08042753716929435,0.022499101887668866,-0.12190473583478324,0.022056669539805205,-0.041444182257259966,0.018596409717620898,-0.051946968797974426,0.01103874034753559,-0.026333142174308787,0.024605810842873686,-0.0992355586243687,0.046711161196652876,-0.019098470410271674,0.04644268256021997
2313287,-0.009575485953054064,0.22492970497876505,0.06603978495488616,0.07998138866347011,-0.08913456584693467,-0.014621634705117055,0.009226322549558416,-0.021544731198133413,0.04078128824812118,-0.02579901045704851,0.04318558617765,0.06086127796537856,-0.008311633788546033,-0.1407507189259318,0.12528833979432222,-0.23480993646105,0.14252805897879153,-0.037759520025007876,-0.1570623126427612,-0.03529143440340598,0.13288263938766368,-0.20333909627410443,0.13594058594283875,-0.1622060320550785,-0.12060875878923427,-0.1588555850164065,-0.005206909586940598,0.00391581326246023,-0.1568355345250967,-0.024775933658468596,0.1506448109316793,-0.14964437205706466,0.06224412641298789
253J,-0.003728996744424999,0.14189975228963614,-0.07510318162038408,-0.12809842994195986,-0.1035709899136472,-0.15260982318902314,0.07869671043719828,0.060984460962420696,0.08626594103072047,-0.10787717242390792,-0.1272739025805763,0.008958771050640083,-0.1706418301072152,-0.03879842790329663,-0.0524917556892059,0.0011904485296944333,-0.06450402713064009,-0.14270517521357778,0.06394432270879408,0.01272356695317726,-0.2383769722458699,0.056935074599935555,-0.07955486145992005,-0.11076466799342166,-0.0072578833265153795,0.05555098080916847,0.10327658003476124,-0.13045636221038365,-0.00518278360646356,0.077479878247157,-0.10389450791726104,-0.08899739275156912,-0.016043178864068537
253JBV,0.005610735066232747,-0.16841995633823123,-0.16744506016411734,-0.08882765747545343,-0.039317416211879015,-0.11236871886000631,0.1002170327174711,0.0632601963646238,0.1336484841263227,0.010560593080095925,-0.11803259321565651,0.0977921652300481,-0.007196390740884565,0.01694629020401061,-0.054363988076352884,0.017708098938058255,0.13424908249387013,-0.08746560696736842,-0.05979567464048098,0.028307609674234246,-0.1643153866717407,0.07701746332774607,0.028954520265512228,-0.15975188859204387,0.006105688395272521,-0.004556592982297842,0.11168594662806364,-0.041802820414887365,-0.051872090408923634,0.12668526192484963,-0.020429212200558017,0.021640674551039067,-0.042869344832409374
42MGBA,-0.006341247570499686,0.15002062518462994,0.0014327196461130303,0.022311219529356812,0.08143650519726252,0.1289502309763406,0.04248165321843527,-0.18930367594738198,-0.136638753331411,0.06445526570071346,-0.09216379707209722,0.2417120640629134,-0.02983494674252203,0.17306477618717125,-0.11162263638460146,-0.062142854738103055,-0.023116048569202078,-0.03750968195483862,0.03866826094124819,0.04155022080418583,-0.04551067676706624,-0.13571062293889383,-0.07015452217215318,0.05065891111806572,-0.06156759639223397,0.0177097554542277,0.0240524789742893,0.12213931449936476,0.09036013920436926,0.08648673254592186,0.016435277280619425,0.08151949358502676,0.14408752039718312
5637,0.0026080281085179126,0.16347143410829143,0.23534074333297275,0.07643815675087608,0.002393954304265251,-0.17724549974074336,-0.1741755161987209,-0.05736199306495948,-0.027835133311717854,0.19497526323628564,0.20908761987529673,0.08386821597521697,-0.012097768909407095,0.05231833313201862,0.025820471537950092,0.023038351515875948,0.008809773573637596,-0.04054087817279105,0.0381094150465264,0.07374849345490386,-0.06789978373241153,0.04831099565207699,-0.06587377350787207,0.09814360908830537,0.04966050659948461,-0.07992957705488223,0.1447920483326403,0.0659411691547315,0.014083772382258625,0.05674285711377636,-0.0574560092480115,0.0065972027964862,-0.017286442388811905
639V,-0.008388947550923013,0.3738741642695613,0.22041412889633474,0.11437063548613495,0.16044262670659648,0.1606374593678415,-0.08693503378118667,-0.012075727734502143,-0.07806978350367616,-0.05608179322931349,0.04233524700177453,0.10804218680545798,0.0860805703677711,0.09772085657080049,-0.06241261476547642,-0.007581905876967307,-0.11707640671817968,0.08832863068679118,0.13308272002532578,0.184389163376753,-0.09277556617118439,-0.004056833689865325,0.057980775397367804,0.2074049284464972,0.04692207179797423,-0.07968444975293781,0.11216649180091684,-0.06536591464652688,-0.08025116016783687,-0.11988128215564321,-0.08644686611398171,0.05153984016506008,0.10031577835919447
647V,-0.002321392311168383,0.10468298793740803,-0.01996409845862703,-0.03807211711344875,0.023951595696498768,0.04544978988309844,0.06614446336628524,0.07495034944058473,0.09089838891536406,-0.025347133276462652,0.10534453246236776,0.2449714537311448,-0.03753424667100948,0.21587064582102133,-0.110699373805026,0.0610181170312348,0.04530587757692507,-0.09091013255907304,-0.03345651208931447,0.18024792996800823,0.0386771579718304,-0.22995848677758135,0.026018478446982927,-0.0076826530918009985,0.12580141716368753,-0.029236691631124745,-0.11363605192431121,-0.014192441797753601,0.09760552905996148,0.054398884997116176,-0.03291886393725682,0.15571008137672515,-0.05450498579363881
769P,-0.008086508966502566,0.2047660583204821,-0.20259308705578316,-0.06073884481279695,0.059625018376547545,-0.11158370926637248,0.03151582582651253,-0.15969488783352856,0.19483427898194192,-0.23999295414280178,-0.021550693762526787,0.02184138683619719,-0.1851928560182291,-0.010167942318420806,0.22124800453914673,0.024233247355835628,-0.1697841833882994,0.05818070853449012,0.09623567645886555,-0.02890736763859838,0.07343110233490112,0.08732278401275806,0.012521195482749116,-0.07107055721825556,-0.05274628838213021,-0.015993809277499424,0.05324336159239496,0.07804438161322369,-0.07520012418244451,0.03969780555015053,-0.054077518877384496,0.0544566552260895,0.07763306259696914
786O,-0.008470994886927064,-0.11997125190084956,-0.12110790293729007,-0.05982191901231739,0.21424965499407084,-0.048632504198595355,0.037317626457539194,-0.02234067502573926,0.05791344344365023,-0.06640043270584216,-0.10968737324449529,-0.014381792708093907,-0.17846351013835485,-0.05924811292813046,-0.007167869078342908,0.07676167206279796,-0.029667553486674502,-0.17089991448043193,0.16689451030147012,0.04557916160394232,0.16466999403886665,-0.10490189795852534,-0.032084439730166614,0.027640942759310574,-0.11285495819075655,0.04725717408622094,0.0014303777311660503,0.09609067219768966,-0.03788494958515568,-0.042490780902241176,0.02133697388727409,0.038799934249587824,-0.24599622958743908
8305C,-0.010765610192987246,0.4174292872789259,-0.1851995865524155,-0.060897823846831914,0.15011090152244164,0.04073457460395259,-0.13299911198965927,-0.05717667483196117,-0.10591001672540573,-0.010154531130288181,0.1122812906409005,-0.17490035219406347,-0.07294295509249399,-0.08625632804099033,0.0041059684614158645,0.13395721962100118,-0.07392993130416894,-0.030257435536272907,0.040955731069922875,-0.051357887519805225,0.02767222095836422,-0.03212336639173495,-0.04525278527590502,-0.06269197591457895,0.05217399796100187,0.10497046045928639,0.05690694755414605,0.03947328396293815,-0.07998405110018662,0.029204576805978585,-0.07802220591710719,-0.017835155231820308,-0.09927170290263695
8505C,0.0050971662721247665,-0.1626668410442037,-0.09079343442482482,-0.07654714259030218,0.18109307214898698,0.11637962050717175,-0.04979400854048298,-0.029154542404640865,-0.023456161035590013,0.08374863208950775,0.08017724897003743,0.019329043011673524,0.1547669027616206,-0.00798136787921667,0.11816668408832094,0.11278072317886863,0.18234576414547815,0.04615419127505852,-0.0368846597483547,0.026171893727378024,-0.05100725945435834,0.016780805437059322,0.003004427557195787,0.006603199021570003,0.11272170215223606,-0.011333209777697934,0.0301091818802133,-0.021485067440219267,0.07837614438705423,-0.035285469806094344,0.08161100899559627,0.048177673476299816,0.01706645587645631
8MGBA,-0.014648087381081672,0.14087024225098602,0.013373211393073344,-0.00028892352111888644,0.09619718789210799,0.12488487609262508,0.1894020134716339,-0.00551595103747433,0.09910588705109845,0.025947981031782787,0.20691242786692393,0.044108061320647644,-0.174040830921394,0.12002626950911166,-0.003899842416120293,0.056048159772551544,0.01987414718598517,0.05779506287941598,0.05294472508726308,0.052688111099837266,0.03940860668022171,-0.3412969690982282,0.18159325341496055,-0.08626546901089727,0.07099272034863938,0.17432326465747783,0.0428791041123102,0.06090816516219275,-0.11108368466979622,0.09159405647430276,-0.11910664791464672,0.07769411196574603,0.09958082834467455
A101D,-0.0016803174866134689,0.042216579009749074,-0.1557075971961023,-0.1870584447154265,-0.12384054980012614,0.3963620551037873,0.09945137611773323,-0.0588224093576027,-0.08265293343683468,-0.129912023545699,-0.036310665665309126,-0.06165487872337737,0.09491618453177729,-0.048625308149175414,-0.07140105021300977,-0.031144222865673872,-0.01215935689193451,-0.15530880097982158,-0.010862484553790156,-0.020101945114469912,0.04100582362092474,0.09193297103121872,0.13807393430455914,0.05631703386412823,0.1894674097875821,-0.0918314617613511,0.1473125444646748,-0.049289360592475316,0.04719660179230708,-0.031524950963354156,0.0449263482873037,-0.025690662975641904,0.04198575128808913
A172,0.011790042806080822,0.0067514143212866,0.0017809655721534518,0.018112123672574948,-0.02971446211847847,0.2410600634988279,0.055328303955277235,-0.07256795393411633,-0.016225681512439354,-0.04165275236087028,-0.07078811908255997,0.004565596558956268,0.10880214605022774,-0.0994636604819173,0.1406839716143294,0.09342878746444912,-0.08510567881085557,0.0011362017581522522,-0.0037589788811527246,-0.09538459702892967,-0.1910794574897306,0.01676868523609719,0.006550985786025133,-0.19376931173634213,-0.1492543866341526,-0.12783702254636792,0.1464996209754891,-0.12047515430442655,0.03045356782418658,0.019950887742202682,-0.0019388895275090855,-0.015268662913158313,-0.08929428686442473
A204,-0.005255985602537093,-0.046839220662688426,0.3407418746269949,0.06176422338681963,-0.11774135621536189,0.09868864573581793,0.26194797649877094,-0.0516313772896847,-0.0049999783238536466,0.1189055415203161,-0.1339717904348468,0.14055086372001319,-0.15080744361638812,-0.14078087866783667,-0.01412427654427918,-0.06215510579313824,0.056355758775137425,-0.03348897238543837,-0.07346882514581464,-0.09002583560616674,-0.04841007483982514,-0.07285252822267221,0.004333724678461503,-0.1662003427095568,-0.05326019881587253,0.14804796683303711,0.012224914038874147,0.10143763825852749,-0.07915155565413375,0.04741696316458892,0.05079126871701231,0.04089408073986188,0.13955334115242526
A2058,-0.006742860349711196,0.22707319662104292,0.1352574144976346,-0.009359065768761866,0.10547799617407731,0.09146538435953011,0.05268652326031447,-0.019203556498217794,-0.025862018397661758,0.01801382614247624,0.04046041951276394,-0.11080920853876579,0.031237923816016325,0.049833073315993924,0.0710240394214433,-0.041465368329048756,0.010553732634880124,0.008992387380413785,0.035100077841231446,0.033857091854161844,0.0843591679929378,0.01566429395911365,0.02444462899882112,-0.08223320159205695,0.1295867660874033,-0.1060587905140625,-0.07789363559734551,0.0089648876010761,0.13615311313011091,-0.04534421843448962,-0.0723466616124849,0.09852384039073246,0.05132363404317874
A253,-0.005326430471377154,0.060392858227460884,-0.07014567104094928,0.01064774557649401,-0.09333050257615766,0.11269096389412764,-0.00202749775499694,0.02133811432581216,0.042178200756844225,0.04555706534164792,0.005475094956096339,0.07029358300392759,0.2956374645011112,-0.03619185570327582,-0.037456498201944036,0.12078284520581568,0.080571655141912,0.22530146219586225,-0.017349910848013766,0.12685227376390426,0.13177680379896003,-0.19127316289393564,0.03483341490479005,0.14230981258753322,-0.0173154619039928,-0.09589433708812192,-0.007288642460809623,-0.0031664088891189077,0.058743686609200284,0.044718278780450704,0.10665903494293162,-0.024580402950287784,-0.009355982707207475
A2780,-0.014594124791894522,0.3027219398084287,0.11227965302536749,0.026883538678935323,-0.13798765200222202,0.11795961322306274,0.06039591910761735,-0.1014893489803661,0.09632014116209954,-0.1118634734918731,-0.15960976235403448,0.044887861234462575,0.15543011835266626,0.049148086191837886,0.012021090171689812,-0.04566856099390203,0.020054325919049838,-0.05313988725258405,-0.058450495997431635,-0.09904115505197049,-0.21330071685359608,-0.08443521849918705,-0.07142461709691464,-0.009782173618511757,0.003940357397283122,-0.08796504724549974,-0.008041233391992347,-0.08365923276379425,-0.013102179761832682,0.08330777784479874,0.12394594117111715,-0.09368654065267505,0.0016006946578973745
A375,-0.004857492828878707,0.09040855593114537,-0.06131512176060273,0.0446185798462061,0.028746097153526173,0.19442902587356545,-0.21412915958285614,-0.10667198169390953,0.04156096734191629,-0.12336373067685716,-0.07456683763853009,0.1434352269678926,-0.07898545564969384,0.07428804411853933,0.07550772452850471,0.01746562011209146,-0.04332170144675887,-0.1943097523978281,0.07001232053707598,0.013764405867983128,-0.10996676284195349,-0.0319231742615047,0.03202732153823749,0.05301288772698272,0.1829618813207714,-0.05759167758305298,-0.07664597234653558,-0.07416792172616324,0.06419012665515733,0.12226500743997559,-0.14551228726399912,-0.05988750468670258,0.012451414504269233
A498,0.01971613426526698,-0.5107191511378486,-0.1939736349371012,-0.07626729388876664,0.08298242045343057,0.04850598912061114,-0.07690718958780618,0.007233953848223314,0.13994743151932823,-0.08915545075597836,-0.1261202383110976,-0.08912505130624422,-0.13636142275032298,-0.06546217378537456,0.1439719216166896,0.013634124669270232,-0.058725864517910724,-0.0419706369301629,-0.06999123671013366,-0.02440858566971042,0.10647465234424959,0.12326727569148588,0.12776653269065152,-0.06725581967686942,-0.06649825413353472,-0.09783314763508892,0.02072243264230962,0.03010847529447559,0.071355574526772,0.12213410689958276,0.10789614190690529,-0.14347688891877833,-0.05686451896456123
A549,0.0010150641176520294,0.04294840469512232,-0.13346841545537624,-0.0009573843011886335,-0.20716083738927124,0.22165141722177525,-0.15815204350012937,0.010114344325255832,0.016873814174400398,-0.06469723873704708,-0.267346468748033,0.06614346854685013,-0.059408141843976484,-0.02537998704651493,-0.03201235161388537,-0.16284142152605105,0.057221582643461395,0.030367487294312493,-0.2041105685770302,0.14817944225500626,-0.11901780966935202,0.17009468189655985,-0.04530024558506062,0.051461190724677155,0.08621232722930494,0.006777732083551299,0.029343141484498434,-0.13306400038777252,-0.045902804231796594,0.06021018283374879,0.1405674419581636,-0.09679260695756063,0.1311712453285555
A673,0.003167490226342875,-0.07499918321656963,0.19063113291019185,0.016846383866156663,0.21563595102411084,0.0319944158490874,-0.008422797327560532,-0.03997499616563577,0.022071245861963754,0.11979041698247057,0.11298365065154667,0.06694003155074646,-0.07668124082147426,0.03858662939222997,0.1445392663696848,0.13195380234676937,-0.00514846377786981,0.05520337719247389,0.09502468207534924,-0.2300010800423715,0.017515439582320408,-0.020905760827355922,-0.09316555659265038,0.049455362473742305,0.044624487750842545,-0.09503754867360822,-0.11117093360367572,0.05615136965854811,0.1422691572759428,-0.03597596879728108,0.19679671197962845,-0.0748775735443998,0.04385743482720468
A673STAG2KO16,-0.012241181374633904,0.16790350589136743,0.08319660977378678,0.03032148569227341,0.1489170306997279,0.02636724486143122,-0.03433955109492734,0.03946280813364145,-0.05035768504009387,-0.010431995362259291,-0.031637614700812416,-0.038295731921072135,0.048048884001846454,0.010307663521729639,0.010971090083726138,0.10584593234772767,-0.07146735351131107,-0.0547481069800978,0.009842655156483504,-0.11201614742981542,0.14077188538723096,0.08714641197628516,-0.028067223797281538,0.14379205240184859,0.08769499516390733,-0.07456788776436958,0.06672050648263556,-0.19101179335627844,0.028528148244543552,0.08729821473292163,0.03613676178037445,0.0006605067783596067,0.03511095716292068
A673STAG2KO45,-0.00806335232761389,0.22444487101595473,0.10973447523492266,0.03338410162690537,0.11173006121845948,-0.017052354511816494,-0.040138360392226215,0.0012118438780294783,-0.026572483846780074,-0.0177879596714959,0.02724361059536874,-0.035684673091911284,0.011204629507339638,0.002242684187368863,-0.021236485059452904,0.11205081781247854,-0.05280073251103314,-0.08484464108745521,-0.020154327014295436,-0.03693423277206148,0.12805818771290794,0.07957994381334431,-0.04584111664906484,0.10482041102114405,0.013847364095163154,-0.02745770534596711,0.07026182161285,-0.1686106360194765,0.04783507543154976,0.02001111003678767,0.06378598066014465,0.010490828776489753,-0.014535893561698186
A673STAG2NT14,-0.007521818583775755,0.12610270390903988,0.008711075965382283,0.010458171208193203,0.11977179050711421,-0.048674244297110016,-0.07718883377574341,0.03625206516638913,-0.05671946486976382,-0.05054008277228951,-0.017202521501117896,-0.01669032008556945,0.03436275120653169,0.015035756139922406,-0.04351418230552642,0.07262316466642214,-0.0819822259651103,-0.02259908077325003,-0.023989369924411624,-0.06605662917387921,0.1346540504412514,-0.01369578168606938,-0.015769472353385147,-0.008842884839902813,0.002471738554702405,-0.039216624926812375,-0.049826150042758095,-0.24381497027439092,0.0247575369975801,-0.03432049278900945,0.10468142876020757,-0.062490700738388284,-0.02660942521342513
A673STAG2NT23,-0.012606632284530826,0.1503319278995512,0.03034620044372226,0.05425345072747658,0.17285989515447986,-0.05419175974008645,-0.07378226057599105,-0.011279977867545716,-0.037608605129014185,-0.05669281042310601,0.035329796135947986,-0.08195179205471326,0.03147791552511072,-0.02649613931705329,0.09062981140821719,0.1463729344039384,-0.02822103184025154,-0.073207689666208,-0.014781500625461505,-0.04553020035577311,0.03761777332173974,0.05230147820984707,0.021326468808692812,0.07429297932413616,0.12010326844543191,-0.03287152661589877,-0.06748916508603371,-0.13055389398150566,0.12600620442336985,-0.0348365354542586,0.053181489319970736,-0.14006273004230987,0.06715436334637677
A704,0.01773448961767631,-0.5771671385855563,-0.2762717101534077,-0.05128502718301092,0.210624289999525,-0.10001017624799036,-0.0372338539624499,0.06948976155118496,0.29922949480684324,-0.2835217501842188,0.08763261294467373,0.09291201168085066,-0.1351041964145656,-0.0807610503283773,0.10901823353367736,0.2657427271949789,0.20924127788354,-0.2694024282926448,-0.06337637797391367,0.12496286906188056,0.13498913006696212,0.02172962686780059,0.04329736198197293,-0.01518766559416425,-0.2856124891806869,-0.06389044787322226,0.08448618708638848,0.0946450378948862,-0.1511757509989556,0.07561547878953681,0.15389273743628706,-0.13255719855088274,0.05459930557098672
ABC1,-0.002639340400702099,-0.11116651744241762,-0.0033885020588222217,-0.00651662870743836,0.12308261708993641,0.0076192329280749815,0.13688845904627037,-0.012486907918136081,-0.05732023827912,0.08004155936967043,0.1139779652547926,-0.07821661672030233,0.10405550320647447,-0.05798948871035181,-0.048742012900403996,-0.13524633702490482,0.13121404983512108,-0.013936102271791454,0.13870257586593848,0.013715839249175554,0.03712920733255974,-0.025806727070431898,-0.0442913097666355,0.059779973017513637,0.0689519091734768,0.03085317529273744,-0.022673162720418086,-0.1506560724425931,0.14084538985957717,-0.0980115598569653,0.08573696817114605,0.04735916838937582,-0.10902537364140184
ACCMESO1,0.00546532199223345,-0.17958262853724738,-0.07845094138419308,-0.08616284142456546,0.09500513596610671,0.06472456119577993,0.16888265628868626,-0.064532581929263,-0.021561698287629955,0.05139668989260467,-0.07240565356578113,0.054097652799608466,0.10406032209932771,0.011976469226493699,-0.05673435694087027,0.07634451520692899,-0.0057476784599313074,0.08093234332925667,0.031369090632809606,-0.02277533475138942,-0.022152528685656835,-0.002103959150508194,0.00910127530736071,-0.01915131240860525,-0.160654769941147,-0.11555345804566482,-0.0523068330752397,-0.12822702405217346,-0.11226986530874002,0.09173742459706652,-0.029946402251058706,0.04675367567227353,-0.02560831790958832
ACHN,-0.0031654224867418037,0.28529322834970894,-0.06411751496184347,-0.07748515202964243,-0.09904024125434897,0.02205774033643152,-0.052047163184589115,-0.09793354526012574,0.15655371012627425,-0.062125738090065226,-0.11734565421725217,0.16101949201820878,-0.1948893297001277,-0.06713242237790919,-0.021346305181919538,0.15984737309146232,0.02095987280500295,-0.084558126482583,-0.01913302951901529,0.097842980450068,-0.046507591681650744,-0.008899029828250435,0.09271694403587741,-0.25714160309471223,0.03859848164202879,0.03726421861358338,0.022853586258621956,-0.10212650457508406,0.059352945055298964,0.07379988922363916,0.14752762398042585,0.03945182847284191,-0.0607973731767136
AGS,-0.003431979998939406,0.07310461778271,-0.004271992660037485,0.00027085000757747705,-0.3841970414525105,0.18640003595062388,0.047928900758071616,-0.03697637089066858,-0.08638813547350672,0.03665878276270157,-0.1480605211977889,-0.014413150894819763,0.07547450681708896,0.023075171050973925,-0.1011721347737767,-0.023888048919478017,-0.14331341770606473,0.0025673879327149994,-0.06401679362662191,-0.06155828660406904,0.0008192827181983108,0.03349227202417872,-0.06062867431070376,-0.007224876874221863,-0.08900957755081547,-0.13259233760688455,-0.11600630424024191,-0.08904862212191839,-0.11768343636771328,-0.1496328131575845,0.0925463742571777,-0.16187008274568568,-0.15304766722808072
AM38,-0.01224131647466619,0.06400538064102315,0.5193005138848698,-2.7160814513163816,-0.2926303981692899,-0.0226753497101016,-0.3059290259960863,0.2018121239680105,-0.16693365481020925,0.017840354141650194,0.01989291179335672,-0.2558204187754972,-0.0011214957938773013,0.23414749885730698,-0.0652555611697551,0.006135212378940944,0.19612878325830072,-0.027810363084421114,0.07402042542488678,-0.052528725269999896,-0.09164930725228869,0.10134243299925676,-0.020821316288910173,-0.00528439052335681,0.034966157534440406,0.015246519137313435,0.00986068970972865,0.02783251032988228,-0.058047189387721874,-0.0177688795109348,0.00812849440669733,-0.028113550869234758,0.023005459063278458
AN3CA,-0.022816228338559622,0.3051170413755697,0.20727195335844786,-0.0026610608598439185,-0.04007319172739301,0.009536312455911227,0.1508193178901435,-0.10962586739537884,-0.13840056308180146,0.23530035442294012,-0.04412811434934212,-0.03373931792043742,0.08178410311001742,-0.03895057234834925,0.038456077714266755,-0.11970765452538547,-0.03612886409577865,0.00470542800936953,0.018810427801512458,-0.08228366409713671,0.06774664320965348,-0.03950890204209169,-0.16379065413631888,-0.05858988521640258,-0.12714607517137033,0.04654982376477534,0.0039749395622183745,0.1186795540999758,0.12273064709199295,-0.17108429637025424,-0.07619790202470846,-0.1069726867885291,0.04643775967272381
ASPC1,-0.019409288725793852,0.14807429435533156,-0.2997109523257645,-0.03919775002316314,-0.11703572536945044,-0.07547718885623475,-0.14789125750480786,-0.10051910707881144,0.11817501054513448,-0.12633769303258438,0.0031352221495127746,-0.040660600237428526,0.074867335458843,0.07788573716354266,0.29659575686576084,-0.01086870819747502,-0.08382072635473205,0.2843253773046059,-0.04319849953968143,-0.19589085608376527,0.2814507755730897,-0.051628467909535396,-0.10824266252109473,-0.16276519320243066,0.046464626582085514,-0.05744809160028102,-0.1113778103900703,0.03816693559690775,-0.1663070928741325,0.11437637927446076,0.012054908330190949,0.12410835892085835,0.02527405230438811
BC3C,0.004230982240886835,0.047322502461592975,-0.0615390623982011,-0.13076621329507956,-0.06061248175056308,-0.11657485033848579,0.07376884874860737,0.11418515389232253,0.022557709633647324,0.013204515779018504,-0.10220647977404994,-0.04429116411316753,-0.1126153616654684,0.007986611225359316,-0.024801145665778568,-0.19747338728651692,-0.11040593746088805,0.1286203935293035,-0.20978333262284782,-0.06915182570464826,0.1327780381819846,0.20611896022507026,0.10882891381948379,-0.12526765079857669,0.04752589547251809,0.06322302507406932,0.16444078420376373,0.027736799330392404,0.060734787480049325,0.0661828080515604,-0.025991371244154255,0.0024921643585940375,-0.09751211961633528
BCPAP,-0.007521600172855814,0.40703348407925205,-0.08243698715004771,-0.04619042230955361,0.25072091223976156,0.07462212904459989,0.03276005294312993,-0.1461806984038371,-0.12250157525542306,-0.08211463545476219,0.010022908016661313,-0.12617470501810188,-0.009994403353687393,0.04404845645615218,0.023458488281122458,0.30708805707403614,-0.29391234608419553,-0.022176926602628783,0.0565045821908998,-0.03935666683744673,0.006860286928940051,0.06236557076338786,-0.00583126340359304,0.04164258575812471,0.031831953405460967,0.020737790521676083,-0.020086655317097857,-0.08213905192759521,-0.08760793798352481,0.01654358964750675,-0.09347376180253245,0.1160883226729596,-0.09495986584656375
BECKER,-0.00669582657564732,0.1252646138255027,-0.12202842477465135,-0.052359924574416586,0.12193712779609893,-0.029944570646785428,0.09047350264382815,0.25760461665128176,-0.07320410117170714,-0.06979353793702725,-0.037848137563807886,-0.2500351619588585,0.13749999607776425,-0.08864757786883137,-0.11297418785020279,-0.09664098775945865,0.07185433733795397,-0.016818215271328478,0.0012910588440569859,-0.12539593754298733,0.02240054278800448,0.09604580104031012,-0.04259204016117012,-0.06969545898981204,-0.013521181176328077,0.004129612537296832,0.009846352569012716,0.009760258777742531,-0.040212788606606764,0.02995521848508473,0.06934803426632276,-0.09751630942837165,0.032630400521696426
BEN,-0.007294657774354923,-0.010932330751619482,-0.0027846130644703045,-0.10623916797333795,0.10741230102866038,0.05740739833034245,0.1406120162781052,0.009148326490973751,0.1860910035323841,-0.16597456948150122,0.14857295358678252,-0.14701554793193203,-0.20462995800502726,0.027976054079973157,-0.009366414265830724,-0.10487387313582767,0.006141395420040244,-0.0540795191105161,-0.1562801868112276,-0.002136180084073593,0.1267725645606888,-0.013065615649065292,0.04856440318346224,0.0725957326206146,0.019990397613765656,0.28639142276453183,-0.055960985729898424,0.03171910357961878,0.05893668917587405,-0.05353212283942333,-0.009534325324783497,0.0019210081037107287,0.014766827002035545
BFTC905,-0.006384738482271386,0.09888757281867724,0.03996466741690207,0.00853108087498418,-0.25946192207512586,-0.021271377752497454,-0.08022108896849972,0.06506867344899203,-0.09608277749789922,0.09808126105087923,0.18277921693709365,0.25605941102773794,0.00927304643919155,-0.09791471210003219,-0.13733658398646673,0.032191288965830366,-0.10535650771568061,-0.030471295225095243,-0.012326746476301846,-0.19679312095015458,0.15500233814912806,-0.2928587907486431,0.03411654032736813,0.24036196160657738,0.04990378630696766,0.1200273222936339,-0.0049362089090894895,0.09268386904884392,0.04353514114013322,0.13208063495878022,-0.3035230933288517,-0.2733618418706391,0.033939072120940224
BFTC909,0.013067793780711037,-0.12996400677548317,-0.13518804261029396,-0.12373197469828033,0.1908721873487788,-0.07603999110396688,0.12463440777331146,0.06298776660896296,-0.01863621894791366,0.001678728415108191,-0.04279580450351424,-0.055705753703865324,-0.053270399021165704,-0.05303897580114979,-0.020647437437131804,0.0384980711185877,0.131339040670188,0.07903833959366299,0.03721171328544169,-0.006977595919427167,0.021610707161868574,0.0865049814159487,-0.031963356011283535,-0.14331998907551857,-0.19521759394371072,-0.12172580241730892,0.10144079564867596,-0.1470916450588132,-0.03455414912397749,-0.019865862425551314,0.07034654999540793,-0.12302714959600296,-0.018422632195698483
BHT101,-0.017925545774881695,0.2970774877698826,-0.0005453140047832566,0.04430048270422099,-0.10657435095114655,0.10021733594826228,-0.305064500218773,0.12750621152153074,0.05976979240246574,-0.12179552413966883,-0.03328990754873838,-0.1042808202115394,-0.14392984173688758,-0.01882382465858238,-0.08902549631886983,-0.10547905441490109,0.044156658771674316,-0.0772948324778966,0.17351518639811278,0.074634768905282,0.12170610540543841,0.048190054021626696,-0.05095491352359865,-0.06491928435329442,-0.02661026039943137,0.1528428397472653,-0.08762983601055366,0.09380460962094929,0.08357341825137322,-0.04678488004231081,0.02709468255061716,-0.026257782380400618,0.003920019332043588
BHY,0.00457802249038718,-0.21531575899402752,0.08910014568066102,0.09315498619521434,-0.16000981690968938,0.010467815664208232,-0.021218168142547504,-0.081051183596764,-0.09241065679679242,0.02357369625908345,-0.09342367848772157,-0.09324037854153208,-0.03847613655725488,0.10300366713225671,-0.06913169767323424,0.1457411791318025,0.12108741581552565,0.042721052290589846,0.004293454686825586,0.06422710794215253,-0.024564573953210114,-0.18705667240035867,-0.07065140472216756,-0.0386039884078431,0.05048587739416055,0.08527464387946491,0.06385935237893174,-0.016036866312210168,0.08349251605941986,0.058142463822540146,0.0396593002558851,-0.08259796246394616,0.08748583627990156
BICR16,-0.0009442993368146589,-0.03972538304737861,0.1607295466609027,-0.007833785462316292,-0.1529280858279124,-0.20448607979073297,0.034592881973205133,0.1288223503669756,-0.09891544438742576,0.10276162133443854,-0.038031032380390274,-0.04492358859464052,0.02927078952434766,-0.10247488077770953,-0.043566967963848055,-0.03737039595247927,0.0006367544854521398,0.04622825463903262,0.02040064261298891,0.04578276942024718,-0.11323312713541016,0.0607964985239487,0.09305834529105492,0.11260107817959811,-0.041182625482081445,-0.0102891016684208,0.08530875336796839,0.07787065895869426,0.08928017374272672,-0.05757336169255323,-0.024088219243679668,-0.1672361762958006,0.018179328264132866
BICR22,-0.005941010776006415,0.05054915504238571,0.19779943939573988,0.05456268934244357,-0.06558482366707209,-0.003563540162048804,-0.02943330495217914,0.07943336025168393,0.00836140539344572,0.05943337055179907,0.015412380399518191,-0.01616202486950646,-0.06626021161545376,-0.025191848324331162,-0.13719186362768176,0.10070948371545055,-0.027700526181598083,0.041635358865181195,0.0471233524686227,-0.025420730711524397,-0.027767569138187082,-0.07023553889281471,-0.00704319530474104,0.09471949587288266,0.0013556950775084418,-0.03272413293375575,0.054816318988739426,-0.05729859231548702,-0.06972501457751654,-0.03627238035394896,0.14315179491849794,-0.10652771273198945,-0.006052537720234969
BICR31,-0.00538215605739116,0.22984242125727594,-0.20066406236484777,0.006566824389882161,-0.08449961326406534,-0.15643611069591945,0.006262692763626837,-0.0025039309833130223,-0.07456298373123688,0.04537891249572226,0.05069211363273651,0.007623651772325683,0.06860109438245296,0.012591606076955255,0.043939672773016795,0.03561490860138088,-0.11117743921156797,0.06357953311173747,0.006921842300022333,0.02186286423203198,-0.058647123217261385,0.012696828429467432,-0.0864044650948982,0.0821037990658822,0.05144450842620184,0.06028089537876088,-0.04855920423182461,0.0963887215582239,0.010109161160572951,0.004316002020982169,0.04515657158127831,-0.05080251494289864,0.0006528482496895312
BICR56,-0.00029675471616023884,-0.004813296855203246,0.0033910398201893637,0.040536474851551506,-0.13375038538316522,-0.037929499882732906,-0.0577375780387188,-0.018885752660413424,0.09306550350599319,0.09285294415118882,0.014879523316434108,0.02140927604926241,0.0401601375048994,0.05145801969098983,-0.09972459681133762,0.03766825359211478,0.10004904078900367,-0.01452084428386071,-0.028840700945105928,-0.005063710948795658,-0.031183517344381333,0.0029435828858764257,-0.03602995489428398,0.16864781428123057,0.038292634077094455,0.0472264684726633,0.04200719914028742,-0.013672910058679811,0.055185418145712775,-0.07059764088904955,0.10631400255414995,-0.13119899579267377,0.053588701415460224
BICR6,-0.002758733635157027,0.011206172290887618,0.21431258648521181,0.10716668828720013,-0.04555261093696019,0.10340568553125269,-0.07534250158825503,0.0544251146765477,-0.05338061390247801,0.059889285089777866,-0.0036649988615048952,-0.03747769044384203,-0.020869605782365002,-0.05345419697984334,-0.06613354212928008,0.04496073108674267,0.11199356180748059,0.08048813661483392,0.04895425912461694,0.04485432916518642,0.04089373334576298,0.05371533268922317,-0.007935476416296614,0.08165636510462083,0.010011808499951548,0.026599344487921797,0.02328755296159452,-0.15443337501669963,0.01988397737117231,0.02508086485668289,0.08972159501457613,-0.14554107157898213,0.04173986257335034
BT474,0.006915532985727968,-0.35012790598213334,0.04176542450227735,0.12164767892240788,-0.08521717861646826,-0.10974549204572022,0.20461077348889076,-0.006168140656778029,0.16132373511613307,0.10761307956254648,-0.09717560534126744,-0.21673109623122183,0.03293808361549157,0.10032107272957873,0.01638550456272619,-0.02627747302132512,0.05308475188974438,-0.0500098344328339,0.053112767484996805,0.07793049358495999,-0.033789013503548314,-0.049587102144605225,-0.10174166077299383,-0.0409807024684934,0.039150379965467705,-0.10349183399954233,-0.0058689114611784905,-0.05430923568282124,-0.09123427977207375,-0.07399381633456756,-0.05525091623597774,-0.07607055226809156,-0.133340931928393
BT549,0.0003627055392398692,-0.021327851240254582,0.10396440444652033,0.020967161393326123,0.055227689740847685,-0.03367199372660334,0.11515183029238459,-0.013820220408555288,0.021453728025082653,0.006920183574482954,-0.010593862191853197,0.017174959211816516,0.07242667164315272,-0.009847243347476409,0.021732592229216162,-0.0019468555593097406,0.09013425708102198,0.052761783168713244,0.007763308899912937,-0.0016829638511226713,0.20011550322078211,0.07854597775637641,0.03767133943536223,-0.01553065002632405,-0.04884806826103879,-0.08589637626615611,0.0032147257650862776,-0.03800900623217369,-0.06831490110492444,0.012058645645054614,-0.08647392425515571,0.1198293263911563,0.08767048562305733
BXPC3,0.018594661237196566,-0.4179555173907818,0.13068295988210607,0.07006110774447516,0.013342849137489439,-0.08213260995601442,-0.07901550936679513,-0.10213824827472803,-0.1306159138284606,0.09821726225883692,0.023840270978948613,-0.10223294602988424,0.05770555884553746,0.08021104017809112,0.019792676612188607,-0.05824834848979973,-0.0008582470542222757,0.04585364720432051,0.14793166643734548,-0.05911442504028937,0.019649206356801507,-0.011365213308084146,-0.051864539802210355,0.0012700292401948367,-0.10126907692072609,-0.026335616462052663,-0.18112808511984577,0.09901198314945467,-0.001303650445399961,0.025240254332982895,0.015636338500669155,-0.04143224301790977,-0.036052411292420296
C32,-0.0027180206385175655,0.19575866093707203,-0.22025465862645316,0.03316276820181117,-0.12209686778936898,0.18717237198406592,0.012828451869010883,-0.08447903088876763,-0.027428736292884746,0.2124024265629983,0.08249443071460322,0.014745924013784035,-0.006795028815598454,-0.05192943723619256,0.08373957092044967,0.05031355164691059,-0.05050244291369862,0.11986753030665734,-0.020083102082017575,-0.03148440812547439,-0.02279784590068942,0.06815390204229257,0.03362594039938425,-0.09369937448590766,-0.01756408122933062,0.07026150652443011,0.06586718426011764,0.07484789896112884,0.08316809702469323,0.07238536704302588,0.021414122107716104,-0.07172631242686747,-0.0137691818166659
CADOES1,0.0038807643677321924,-0.06104747400568005,0.11729155438520393,-0.006335179091107467,0.24062340668289176,0.046630642552618576,-0.015328163892545096,-0.1695896153553098,0.34251308332250624,-0.23453020221858517,-0.051141248924595685,0.05853393263774298,-0.1891344738090121,-0.03279637226001752,0.05922519570635246,0.017502856430093007,-0.14660693177648965,0.20659241798518937,0.04220896043862684,-0.03520418084095564,0.0059904993691238155,0.05480874872354781,-0.011853814323473441,0.44234233028016395,-0.14010235976446758,-0.15213576803764464,0.21256198588482914,0.03927529299815776,0.24884153952989543,0.0767444151059217,0.044867597113904895,-0.28467773649715516,-0.12754309165525002
CAKI1,0.015693351892442444,-0.32262317241462984,-0.18655936375768908,-0.11156256603353032,-0.0551861455954223,-0.0893054850024548,-0.004317842001983617,-0.02593876123266496,0.12639976598108282,-0.05326534621216471,0.02359714700921711,0.15321495661874848,-0.18510432217429412,-0.04292664333564162,-0.0011994337700328569,0.176162177382169,0.04787371729992515,-0.1578934073210865,-0.12232949830096762,-0.017013600209677668,0.09911496786935964,0.013284258966259677,0.24009274195993943,0.07800219908501754,0.11178965036440287,0.07852294820154836,0.07139996054408689,-0.10902168053482389,0.09425889899769918,0.06228317697738528,-0.077894122959238,-0.06601098700412926,0.18354178070172406
CAKI2,-0.013601055724127502,0.14819333871450469,-0.24163912378480668,-0.1189134202404015,-0.04963073409803859,-0.173339795901639,-0.043096567923202225,-0.0687805246116107,-0.003231166349883547,-0.13450821273083463,-0.12061491456098032,-0.0490124352370661,-0.04095314767343754,-0.15185204876101388,0.21532084904173474,0.024232611621964485,-0.14324584705840773,-0.055700186138728465,0.018118132205719555,-0.11824495051285534,0.0015575385818575424,0.205683167938237,-0.009707272356385728,-0.10418181571708537,-0.0339231149184456,0.0127284628336035,-0.07337256680586474,-0.004833911880262895,-0.08847544812738055,0.24893684648548287,-0.07200776136320079,0.07263333702789146,-0.06633701666377821
CAL120,-0.0013762440710065405,-0.04284349211885849,-0.22902238116941473,-0.04943080657148153,0.01887695512639937,-0.011880979937136566,0.08868941945512414,-0.09647985005585913,-0.05309998892046674,-0.012400762282796981,0.004703185992701989,-0.03393719389826037,0.09702643682020677,0.06014733275388488,-0.013497804662169292,0.007353533748809869,-0.011425574234870433,0.04312962190032861,-0.035015315696762105,-0.1365536180045898,-0.007051996057722364,-0.04251107012118801,0.03411971416352273,0.009209347748918083,0.0013085936364575655,-0.06951637729365144,0.039369756380676746,0.03619190224603682,-0.09926349245240006,-0.07560683262188021,-0.07029696479305694,0.04606405644625728,0.03274666374110004
CAL12T,0.010103396979693391,-0.3059504439341427,-0.07621083944184098,-0.09239998288486441,-0.13225534560640195,-0.16205868064413978,0.024387753805421058,-0.0485025885112518,-0.04601326085094586,0.029642533515925464,0.06843978944541904,-0.06453461546438007,-0.0015654036767415377,-0.026226083467154604,-0.07692271886435885,0.17103826051471588,0.09291021427266732,0.0007638861678647108,-0.005796558929732636,0.026353308767271252,0.05649798664645936,0.1335132362522484,0.14906160679073036,-0.06642865950508034,-0.02768969871119502,-0.027945545907635413,-0.007851029781680488,-0.05843155667587382,0.09760026470285633,-0.038481129534710654,-0.004190227016582681,0.03461752564409566,-0.1255995655010052
CAL27,-0.00531539632714076,0.13607642508897458,-0.05764639228834499,0.10682599393533485,-0.054191360159091394,-0.019945986514531555,-0.10408841191325878,0.2506182168586296,-0.11237920967753863,-0.005353643627135255,0.01862348205018001,0.04302056509693465,0.1986533847576062,-0.030428923229494084,-0.088725534223772,-0.07600703970954781,-0.05560312179382451,-0.15976396176365407,0.003850329194865508,-0.008257723239061905,-0.21996887200708806,0.0196907380814405,-0.04213526574837556,0.2190656941711968,0.08328329310530488,0.025847516061222906,0.09393621646587577,-0.06897404826437073,-0.03889297647045504,-0.010835015464146901,0.049252489796829876,-0.013760435426261562,0.027981431734337595
CAL29,-0.01705869625360591,0.26122379880721186,0.1349338001051161,-0.024657744042933662,-0.2678186490830697,-0.08552637034639195,0.10912585886104857,0.061837381312270456,-0.037969581597349825,0.13487932241852263,-0.0018633888743837552,-0.13406312788831098,-0.053488042637059405,0.000921339639164892,-0.019485323926103457,-0.024983453150873944,-0.007750935903885351,0.057192566009152124,0.08932492209158581,0.007471951874286692,0.12156126818525365,-0.18287539116918622,-0.0511497685221764,0.013003929562915977,0.02239164368016437,-0.0973337059059271,-0.016183481555188624,0.046320978046874815,0.03010572232362884,0.021386629711412804,-0.02162563064626464,0.11816467046027918,-0.08052699059030947
CAL33,-0.002339091583154507,-0.01780604316771669,0.07696086435726357,-0.02242711886081137,-0.13760955752151496,-0.18924482728414865,-0.040229704164265065,-0.062240051968307265,-0.06108217725395758,0.19690833378020553,0.056108497956992597,-0.31816487100739427,-0.21234102876558816,-0.01591939572262546,0.0023510944585074245,-0.08874041882853587,-0.03723214865725126,-0.213578109393179,0.22723956045736196,0.28475715607776897,-0.020693670998949035,0.04814862706141267,0.10822390165347295,0.20548924342151959,0.2548891956330384,0.11702555234099318,-0.08981365105778172,0.10975294865860706,-0.06117638002831255,-0.10270512009177105,0.2029731380420985,-0.256247637215934,-0.23009660039994537
CAL51,-0.0031698555075224907,0.03197607628804534,-0.17849040554594867,-0.08169425742941684,-0.00010266862266084525,-0.12018384104013531,0.20967103132671966,-0.21003090377789974,-0.026077867055818688,-0.055961381800602845,-0.1536071968577039,0.07573909433858224,-0.028574584170344062,-0.01320048662013115,0.12606112283390825,-0.051699285307927785,-0.0565107984730942,0.13766649944948772,-0.01634489408164215,0.060628098348757806,-0.1491856075735471,-0.045150023159210254,0.061430190916882045,-0.006418146315482974,0.08003577035336587,0.012929513743646703,-0.12407716820842005,-0.04420712127743014,-0.015831616982269817,-0.06563673848258135,0.019710637652822598,-0.09572064254821301,-0.07061739608612831
CAL54,-0.003607056181297664,-0.3897634815627025,0.03921406909187683,0.001954728545422137,-0.08556592009526079,-0.15695787882370174,-0.07815320058394935,-0.24043306432697303,0.07275261551509543,0.07379700709901897,0.0014904844619487694,0.00519374869087674,-0.21520147021107117,-0.144535176955677,0.16545654071390295,0.24204269364171044,0.036075895269359295,-0.13955749701556053,0.05612589942602098,-0.07292046748046799,0.09802556528901178,0.0374978899069627,-0.14588509559892635,-0.09280064395342949,-0.17503128025391101,-0.03007145263619168,-0.06335677528304501,0.07503455028123802,-0.20760008459445642,0.007306687943708933,0.10596796416569174,0.028174912073001247,0.1835977734218136
CAL62,-0.011355625217318028,0.07123574220622046,-0.058351220246514214,0.0818799786549799,0.18898062862554815,-0.07615907804778621,0.024169321658806933,0.14434694903825104,-0.09724554789432775,-0.04888559534886064,0.06417182670255957,0.02570715467221217,0.0722617977907375,-0.03934745952630971,-0.01539650238797471,-0.013272503321802798,-0.029132580303567666,0.09869200681881297,0.10252724986144524,0.10506365755721035,0.08542381878367705,-0.15223059166512953,0.004375253631181729,0.01857178307110436,0.055755606765381216,0.173029573671474,-0.01868589117047952,0.1555739289462873,-0.15066641102908834,0.06747814299337648,-0.02950060422424768,0.031741853279539066,-0.07925561536508889
CAL78,0.009653051072134386,-0.3209247856101281,0.39140561132256685,0.012473558735087226,0.07199448974315956,0.05913432919232773,0.057468691250890935,0.10774761282477044,-0.07986135021361714,-0.052447062972108965,-0.11650351670746079,-0.05282643145005673,0.017626102405350327,-0.013103019641024154,-0.07413627464687472,0.13704689228845685,-0.24438099861008658,0.0068151096285306596,-0.12182451146484083,-0.0027331999056276245,0.04440715663324534,-0.025616057207949385,-0.03244306952258431,-0.011271029966022835,0.10827890565109229,0.011410350318125062,-0.046771020315397815,0.06075277328915637,0.025641218102546406,0.04258184990613565,-0.08532471809701078,0.0903206055080957,0.0067247132781122826
CALU6,-0.01534513332685903,0.3560907624376714,0.07126217285300498,0.04955692961710545,0.26251276135594404,0.14875662638731452,-0.23872345023350913,0.3852471820803736,0.024876802344077163,-0.0012738170132347015,0.2411954390827126,-0.14589049510097213,0.08370558546065944,0.11778997678304609,-0.06804893233794054,0.02256770672305518,0.1341425024009946,0.09689463528028576,0.24878138061924673,-0.09615859970815387,-0.04593032304903663,-0.004602436873755748,0.01443086509544589,-0.17544993557886235,0.17919180098685195,-0.06392483355219686,0.027638652503993208,0.09584191671488945,-0.089135996926618,-0.07098629349745095,-0.15524756153709962,-0.08533336732981114,-0.02696048485029802
CAMA1,0.015211290526152684,-0.42030294241666566,0.20341284707104595,0.06084050302445954,0.0663989547273392,0.07566035537529069,0.21131614475300006,0.10475257576032602,-0.038925530893987974,-0.005930928524301404,-0.013582944303463686,-0.12330484993424405,0.06464944343076612,-0.007516794564250892,-0.15507113182213622,-0.07345006973671417,0.06299548417339132,0.005792804173529647,-0.06154938366855019,-0.10000362349321758,0.004876806949949508,0.030311672352110953,-0.004186469727236296,0.029414734087962278,-0.05713456744254543,-0.06769430053436877,-0.12933927795955558,-0.0031899130413278833,-0.0934929254129995,0.17691447578465977,-0.04304327771197656,-0.062473422392500755,-0.05588406120552986
CAOV3,0.013167405816499039,-0.0986508834557943,0.25967120517124664,0.11679616977423657,0.09971925526855673,-0.020358540690890676,-0.025927388743595882,0.10335878629010761,-0.0672932392685832,0.013945127449490348,0.013962036919471841,0.06630220612737019,-0.07754930281095898,0.08985788804726201,-0.1842145181690878,-0.09155885859183545,0.028475547053324068,-0.1436912977081241,0.04250652570946039,0.11172081813116563,-0.05932515275472176,0.005915413574961857,0.013472659270959643,0.07750362140364414,-0.005205447387355046,0.036570040704356335,0.03831984337974199,0.08298927848965315,-0.1873747461839141,0.09808113916926352,0.0023579307776264253,0.08276184434230464,0.048635647570712565
CAPAN2,0.004882598924321805,-0.2882214051764671,0.03869750390414918,0.09858980260079217,-0.11052557245348969,-0.02786762211966422,-0.1369812363546309,0.057119207060965994,-0.08334705429666021,0.030897922896228554,-0.03222321130484552,0.007915112806466604,-0.04750177028494796,0.0579657996624319,-0.052778292619732325,-0.0027131713591458774,-0.07714414483150525,0.05728884928075353,0.0004115391525080723,-0.010395018140668667,-0.10696319848176357,-0.012543465072055279,-0.05707600822432853,0.09043743965341469,0.07970257392216876,0.006692459918675926,-0.13286802436136275,-0.10514761337745213,0.07142529549537795,-0.08061579249496731,-0.017575056230519106,0.013656661197590547,-0.025903290005530842
CAS1,0.0028751614679347714,-0.03754284968978376,-0.08708652666269585,-0.05137844028442631,0.13383225931011306,0.07512425013617172,0.0010886296478341323,-0.09747414670412441,-0.07268953472858093,0.08140954429102452,-0.013249644022929023,0.04399073093122208,-0.08760873221517938,-0.05836376594858395,-0.1423171403385903,-0.030718427356667063,0.07890236004840281,0.031289596037009516,0.03371382327622334,-0.06804833050407022,-0.031150339688305367,0.09271292927657038,-0.10131584012958804,-0.03975410709716116,-0.06304935930071207,-0.08321064947251806,0.06210521269876385,-0.013479869859898522,0.004016371608542054,-0.019984938562535373,-0.06001655620155805,0.06277773814775901,-0.08987200448968759
CBAGPN,-0.014981923566552256,0.15006840487898013,0.18824167693537747,0.05597999782551397,-0.08966103647120216,0.02697205470289541,0.057473199307055474,0.005525945740705976,0.07650137565768582,0.036492736547233395,0.02146717409513811,0.13458502510876083,-0.07142628643538107,-0.10825780119689238,0.05769755885002915,0.01554225911540468,0.017073025492836874,-0.08090028163207529,0.10762207435379534,-0.11347504274341093,-0.05042192497253128,-0.0698920927257795,0.035292137919775764,0.11015250321140782,0.052683799271788206,-0.04559918693723531,0.03992817852232463,-0.06406638810461308,0.08084393448228881,0.09807359305806777,0.05813277250697511,0.09932944311201415,-0.010930310876213422
CCFSTTG1,0.009855226395962728,-0.11929348790828422,-0.058973389320469874,-0.00023293869655288102,0.06695182067511979,0.001584765293131946,0.0752827472620531,-0.0267880610491524,-0.06733609255448827,0.0797308299875867,-0.06084630528124595,0.05375737271169602,-0.060517026864821806,-0.04325479702715969,-0.04701895537381904,-0.09943406179694807,-0.0006660040797710486,0.04571139480429415,0.016580790003033665,-0.0456068543861124,-0.1417380365264271,0.10678958681564682,0.1013052247461669,-0.014299187722176964,0.015024310147240356,-0.09115603243658897,0.04851750728040671,0.06903342733691673,0.06869997004322238,0.09536577634547924,0.0008700290519697831,-0.11464900818701955,-0.037260405826391084
CCK81,-0.006634481568345015,-0.0973869278813965,0.1643554671924115,0.031979855839103344,-0.07272523567587828,-0.1138649257897109,-0.0850761441403729,0.09957658002853778,0.2618031702523981,-0.15002891993399378,0.050188809858524586,0.05261082085080746,-0.011702048586581488,-0.07140140284098036,0.06289421620926068,-0.1803009539136936,0.27025845905887985,-0.01163477537118123,0.06396692228805217,0.004038026517262331,-0.2230354267664964,-0.04370117477115606,0.020193607889390956,-0.03229629284563647,0.01552146152290289,0.11339538072722645,-0.0003573994973918783,-0.1138551956441284,-0.15735792674531793,-0.08243302948468281,0.08505782182125955,0.03195478788670074,-0.04268315975408324
CCLFPEDS0001T,-0.009024365466290747,0.19406737708703256,-0.1562843824429724,-0.05200898462499181,-0.010952237765979665,-0.09147017825192803,-0.06595398258916789,-0.0952927655861289,-0.03808655099228426,-0.0015898347770100206,-0.09570042170473737,-0.04301370405500099,0.06295880604794162,-0.08864903642880087,-0.008438621823786083,-0.023357721280841924,-0.02778740041969505,0.17579165238117178,-0.093951241292177,0.14158831956838874,0.13056564039065507,-0.053477786553902604,-0.0255435646745377,-0.08524534005925195,0.014263302862384034,0.0727493217193056,0.08817314077383619,-0.10856098950138343,-0.054423971198317156,0.08237712246457542,-0.05146198347677485,0.09333086650389599,0.13070244154852295
CCLFPEDS0003T,0.022010627734094936,-0.43867125495136694,0.07421275766198161,0.10131348759642633,0.13696231533107883,0.043079293996217176,-0.0011086332478532233,0.07307959616095495,-0.10322718834392909,-0.06493243569972396,0.030710176464166575,-0.04439776658129339,-0.05384796340006931,0.026341321060292737,0.07663527575910534,0.007826492074056713,0.0711541832288446,0.05744887462169795,0.02947909723995457,0.004382720568985638,-0.17364360432919718,0.059465866753652404,0.051248478015650474,-0.058717653442266045,0.03914680139170361,-0.008195410063605265,-0.08837847366099073,-0.06065717796709318,-0.0035045131221008545,0.07815971538730958,0.01462337111415453,0.045833459282637636,-0.06542997973802031
CFPAC1,-0.008888251645185764,0.10647289865998102,-0.1100752388854432,-0.0005308192128537514,-0.11984523561324531,-0.1393153377229521,-0.07408058904945486,0.06831999099942249,0.045793993978220045,0.03185891536696798,-0.035814067206884126,-0.05832191277016006,-0.130185332808261,-0.053641932172553,-0.05554825402793031,-0.1340367532563713,0.020313227822651343,-0.060940750634672095,-0.020274827962296134,0.15686343999945573,0.06578191721347025,-0.18952762947996002,-0.0866881477690628,0.06401335751683065,-0.07408199524788507,-0.036495419764164504,-0.09043492750688409,-0.005805534226731861,-0.05517461591894664,0.03183999716225276,-0.08436652358983404,0.06650658937190894,0.1571730958414835
CHL1,-0.008471668365381107,0.24221595440755156,0.10647415474448528,-0.019053674788942942,-0.019424636716305472,-0.01752681141455521,0.16022183053911176,-0.05646102916165606,0.026209847890691786,0.03678307355257523,0.07591415893677753,-0.04137444524910414,0.037765324024114935,-0.07378084764694041,0.00925691024146386,0.11387284368793896,-0.02438131728246781,0.09883756801991213,0.12229267547024877,-0.007249619066667443,0.12919994975568186,-0.059925225685357755,-0.04028338372949086,0.05348254150296787,0.20029831625924913,0.05329660394697914,0.1761713165219174,0.01361333762588439,0.09979226382090084,-0.09919409087073196,0.11677820559374325,0.011589200223649817,0.08654278571033532
CHLA10,0.0012360617625473945,-0.032974604466661436,0.12042348334411618,0.04690701208016903,0.010259020186836346,0.0545720766176835,0.12127512486313824,0.03679320672424259,0.017468903688970996,0.11799548879846426,0.03513751016707624,0.05824729689608447,-0.07118753256662758,-0.058870872527009795,-0.050270490337535716,-0.007130727985548995,0.0027893866001381063,0.039763397702291446,-0.037383450094716,-0.1703336123328198,0.03642207885061282,0.007157810094712414,-0.09864424925698627,0.08823265324853911,0.10246537818022577,0.0028269919422396635,-0.09059661541949832,-0.04607698308718085,0.11773097658828299,0.029863426671728813,0.07986932560112198,0.015898068079342863,-0.12138868932969374
CHP212,0.011084197795629119,-0.458876645287659,0.4372218096817777,0.0192364824527534,-0.04770440061948747,0.09991451723644468,-0.0007721001028021285,0.17209927676778555,0.017144262417581383,-0.1335323388212243,-0.14603081654568137,-0.01034985128083657,-0.0420051963383513,0.04555893614453056,-0.1070260971121393,0.1493282693287287,-0.1429520870813793,0.06734143793396573,-0.2325505395270739,-0.05726821904653346,-0.02618191987770682,-0.1230179546281527,0.03001534416594204,0.029064430278092628,0.1387566964414791,0.07093982635497434,-0.0764146016929676,-0.017636167880108276,-0.0016173329286557731,0.1025271781621501,-0.019741203109901278,0.05005035959496794,-0.02486673021618784
CJM,-0.009384743937950484,0.1873140372356384,-0.12492489486689463,-0.017131463627563577,0.0022496909348573395,-0.12455453507834297,-0.06212499733023575,0.06326423832419495,-0.009813704271538744,0.10672515520392445,-0.09793759614514035,-0.020340029408100677,-0.026764632729496453,-0.1407698250152838,0.02288807043707265,0.05436211040159318,0.124358819955764,-0.08816806121261644,-0.16308597969588434,0.07282886947673278,0.10926972778778761,-0.01835727000604157,-0.011334282443723063,0.30977201140836164,-0.02795457434876804,0.16272394835990467,-0.05662823095991465,0.1521593553421313,0.2165344135645502,0.1312137449566886,-0.07994343578886552,0.09576854723081803,-0.025738416987050414
CL11,0.007404567480056222,-0.18911356728675127,0.13162490219463646,0.06697205529569034,0.019703616004413636,0.059293532117861016,-0.27619759865232996,0.0822359442485241,0.053151497015403726,-0.1756339992223716,-0.007184926523496259,0.03978249568571378,-0.12984219796769714,-0.007637753969612384,0.009276593976664216,0.05798779169637671,0.025044536433972076,0.040814193303962895,-0.09299062729754733,-0.049006343753197935,0.030332604638203288,-0.03706589884780414,-0.04379962706974075,0.08503248750771523,0.0629904325605498,-0.021828215380694554,0.0015780375828800036,0.12879723890553096,0.033890549066546885,-0.15712690750134853,0.056204744805964275,-0.06766431124966224,-0.023621655031384647
CL34,0.00029412449774556844,-0.11808622728623615,0.2567451288314681,-0.023828199355004447,0.1110090533620177,0.04274267975554725,-0.41677456294844395,-0.0028209611329339536,0.11582446753420267,0.21153050944124316,0.09849055959244253,0.09983600298010352,0.14300176762471295,0.24027871121857367,0.14991130798807686,-0.14264064018600128,0.005643633565669732,0.03240661442114877,-0.05226056795722482,-0.2305057012998478,-0.013717938808724737,-0.21387126924181166,-0.06949927708113626,0.11248857078396139,-0.1466387091491642,0.01011159303131169,-0.051100599525144626,-0.06936733938742061,-0.1043280153078171,0.27975852346421304,-0.15812884187112417,0.09160060142880705,-0.06983778844484995
COLO668,0.003336479888572776,-0.21768781625818312,0.13790384283246407,0.07220483165524617,0.11945883800184964,0.027398022343352958,-0.029071979799722564,-0.2151225464765039,0.11968265388412867,0.019343172415172114,0.17120937714615952,-0.0461115463528905,0.00042019148575378137,0.027251187168925717,0.08844966650119009,-0.01648464863481358,-0.06266901306316672,0.043676853078303185,0.06888472499742604,0.3127672632011169,-0.014089231869967469,-0.022513392240345393,0.04778835788615418,-0.018292665108932543,-0.04197780692938408,0.11491925354670687,-0.19505489230850073,-0.18948908351852853,0.07010423889332104,0.06829124146789871,0.07811855587757986,-0.03324113839340591,0.07959087473821672
COLO678,0.0014724504548812795,-0.33178243027533216,0.1003929484789436,-0.005487728083116047,-0.04075856527922928,0.055374693482283424,0.04565189086811858,0.09707248029536687,-0.03003469254583699,-0.025620767719982666,-0.12882569847316547,0.03522090517524553,0.1014055575643985,0.016191370380860895,0.1363004187799591,-0.0899373791808765,-0.008962629676496353,0.11303563593312226,0.0918937450392155,-0.056202407835442676,-0.1357701607250262,-0.06009887158068346,-0.017898922961597712,0.010683465960660998,0.10707617749523451,0.08138251270746395,-0.09109650318420054,-0.10650069346134487,0.011456444483898105,-0.05814755812319334,0.022309226977762508,0.018600047537203016,-0.013663875641285399
COLO679,-0.006217890265764434,0.30616418311590177,0.1167214400353478,0.07197465488392693,-0.2786215070903964,0.4390858499115077,-0.14496072111005426,-0.05730408061770384,0.05123259401337211,-0.010515332712930998,0.10012748322439431,-0.1259213314088038,-0.06524450778795678,0.07113682556423827,0.07507452796372426,0.012056771244977926,0.010942872824617129,-0.011423466683323315,0.08968259272729887,-0.14297957415497325,-0.013513165617677243,0.12319831673697003,-0.021230192439957267,0.04551731058397902,0.11504396984797254,-0.07916863475503218,-0.05996805859384749,0.1193267752246157,-0.021212505034663938,0.10456750642544628,-0.02364641055988188,0.01457244855214261,0.11176067954278764
COLO680N,0.0005316830161362545,0.11877474266646117,-0.25386231510133556,-0.004816764138779653,-0.08509525137635987,-0.12909587528841557,0.044231567958532225,-0.07572533939546479,-4.105823387893735e-05,-0.08061144462916922,0.07754785950254951,0.004702736253410185,0.12194276124162165,0.1421539829712466,-0.04467799473302976,0.0034651646316348787,-0.1404466465763173,0.02156328645518536,0.007703881359010043,0.021352310185800763,-0.017963509038260786,0.02544036613726858,0.007359262194008797,0.06818057079933734,0.07651296860537297,0.05972966902874109,0.01728834336830883,0.07083146868210179,0.008946665189952477,0.05275003171605932,-0.020479141390333917,0.006377175582327424,-0.019419671846092952
COLO741,0.005252607009434833,-0.018590826690728788,-0.015872152883403965,0.0036441775743041565,0.09167553263800851,0.06050934656040327,-0.018877934649243186,0.06811791957384308,-0.10058318217829292,-0.042211645649177794,0.0440455711845228,-0.22870273987408324,-0.015329692636769301,-0.12829277010369491,-0.035784519419049726,0.0029642293380499726,0.09022596460669814,0.11582920536590169,-0.03722320416887577,-0.04677288817922666,-0.021314179461233602,-0.0715327891445931,-0.005112651324370435,-0.030872851608219256,0.1302424212567919,-0.1438228854952825,0.07707941298355613,-0.004289844668932265,0.1084212040770579,0.09033497861892775,-0.011838889059674012,0.09884867921942375,0.1170676782256076
COLO783,-0.002860001514578662,0.05206201550787387,0.042793425108694445,-0.06197188287999863,0.1834067292609486,-0.03420067072549845,0.02168603437384598,-0.08301607235016957,0.03691124145703216,-0.04765339922537149,0.04013541301359636,0.010431874804349777,-0.015371640054712025,0.06081158416428498,-0.10081790956844952,0.04721281553315635,0.020183478097318505,0.05991644903722877,0.04435837150523226,-0.0011510359039660347,0.1355652913370462,-0.009899809185182318,0.09869057285457884,-0.14066917591942196,0.06316693904998208,0.08112413740503496,0.050608112381864606,-0.1295072458296885,0.04943719834976074,-0.11266970251734455,0.07280993003569927,0.00422188850337323,0.01732339543357173
COLO792,0.013354548180656407,-0.10226066596640011,-0.05447412349282845,0.002548276867486951,0.019835110563091424,0.2044483880959859,-0.05333086303815159,-0.012383707816678384,0.016054694041505255,0.061536878382139955,0.1663425154810752,-0.13160563891018662,0.05464194018792456,-0.10246867845952136,0.21799850618902294,-0.0016671753811303125,0.16023377851331821,-0.04019712960054633,-0.1749270146221338,-0.035351378189527244,-0.16619649680803517,0.21339405661726138,0.08193478503307441,0.12970765312699603,0.05184813702166687,-0.0598299693062262,0.15101899651572853,0.14323425074055154,-0.06586328501185608,-0.14794735273871595,-0.008308991355871091,0.04659292313443398,-0.07616881937146253
COLO800,-0.0020293306629920534,0.16619740620836868,-0.14931167091538816,-0.04442305278265914,-0.10823362688890174,0.2028622763764655,-0.13298218443052984,-0.032326568085510245,-0.07498913560312033,0.14703086940581817,0.08911722554266743,-0.08958255631058483,0.022400692025866163,-0.020069778555048268,0.02984866227281889,-0.005072189907189969,0.08417753386888117,0.03270955109406073,0.012132765198111427,0.004363146463335089,0.09204542523383592,0.05359566210603461,-0.06991246051078248,-0.09796886804571024,0.04828502112445477,0.03228921237200662,0.09935944278943178,-0.036357114268283676,0.14716346175720318,0.054624461119271536,0.021489069586307915,0.007386875976839505,-0.031365494387749875
COLO829,0.008939848546853852,-0.2434823627856382,-0.08894014246929961,-0.005171550597381138,-0.0753207668734781,0.23422174963958634,-0.0640007568024393,-0.008616373203124602,-0.0010715633659164094,0.06065405136498207,0.1443286194656931,-0.015586591286892425,0.03451506019634491,0.0047401286261468615,0.09163653233940515,0.010492896967976482,0.1471004189502081,0.057325582278018074,0.004387239045678423,-0.026697471082713174,0.055558406122197854,-0.05419098541497285,0.028696297308842173,0.060104379761554645,0.10508222907248871,-3.7863027319359814e-05,-0.05585738927755634,-0.027997091790604483,-0.0062197119397657315,0.036939902116875784,0.018840965213748135,-0.15849849073508862,-0.037136831655702564
CORL105,0.011474705836324848,-0.3601980713833833,0.10983234730133516,0.016627342617475976,-0.12519227708140773,-0.02584600672549506,0.004853147805590979,0.07617191728356404,0.05897573607250022,-0.007543440655342289,0.027777902520183098,0.1004132085648267,0.019817590700293822,-0.09206474300623281,-0.04407580547197796,0.03993501864161597,0.08462807570447786,0.055966946299702135,0.1016689106350188,-0.05946265542586526,-0.025275397473793686,0.08389017712657566,-0.05035954802878853,-0.011410487349824857,0.03264413275908679,-0.11508900588606283,-0.11834729628834252,-0.06920892369425433,0.059043369231573266,-0.024942198901564214,-0.039070772163870254,-0.1608325246788298,0.04590215243143188
CORL23,-0.013207051157659268,0.16955077070986488,0.018233683082309625,0.07581311760595888,0.021885780182830456,0.11409170755209394,-0.03490973537735485,0.08078514116992021,-0.07015721330878444,0.004277237496282668,0.12064689186845845,0.06144100779107468,-0.08825183015601057,0.08368053570227206,-0.019950029238081618,-0.006937797348629931,-0.07711604410554403,-0.1333058462663841,-0.0491119318776643,-0.03545195547950361,0.06789923138123377,0.015736928295718815,0.031955082887617,0.09008825550265313,0.0025166491256244923,0.16584517914250319,-0.1451208887560134,0.02719822765963014,0.01652202240564188,0.0475567146517444,0.03015894412719962,-0.08472298981736257,0.037623266538376
COV318,0.009252212498271819,-0.12473379878059501,-0.2355760929917451,-0.06119978685021411,0.0748676187250484,-0.07762932071927717,0.08568213465202949,-0.09201060207540405,0.014356474348088823,-0.14591459544135982,0.035923343199555036,-0.04707617455017234,-0.06603967470630319,0.07108377280674442,0.021418881471206616,-0.04943847698819812,-0.1762133696557902,0.07148767315728999,0.0692669002445336,-0.24448936763262352,0.09316996603696769,0.14684792390092943,0.0170099450118068,-0.0025059141283745733,0.058709837580399465,-0.044630655436949024,0.023758939295817717,0.08430022524314786,0.02793082195171358,0.007845779155428164,-0.05693337239887173,0.003759465551491823,0.11727367024533498
COV362,-0.0027299559770203718,0.16174767753895206,-0.34750619093707313,-0.0747895352128702,0.06663206342742338,-0.12713068124314614,0.035445744429927824,0.016370440068499824,0.02702467580919332,0.04677293566999414,-0.01158816221805597,0.1732730867405841,0.019803251565013058,0.10826934890123988,0.0030082520748144657,-0.0108140662068137,-0.0921109386008737,0.2034980347506973,0.15765991381219607,-0.10309208103876977,0.11743815727046228,0.001436954347014075,0.050388306010611145,0.009443228241066848,0.024728850170362405,-0.07312089982718967,0.040895094974456696,0.09483355360815938,-0.003287103429314476,0.06627036526574712,0.006588692999483161,-0.019274678510705318,0.10830597341619806
COV434,-0.012210531287195427,0.10851139733249057,0.2358553148641985,0.004826290545643887,-0.050086389259908735,0.18907034409128837,0.15478351239565147,-0.08246275306522327,0.11059875568224178,-0.0606253898345119,-0.05306551517571988,0.05809384679579569,0.11037933407321135,0.02435399732044574,0.07220766778916292,0.0975718045139268,-0.10211096554963316,0.011318100230121017,-0.02260589903812848,0.02879329296163407,-0.027197699474883732,-0.04790607569697756,0.026229895146878155,-0.0658637066303328,-0.03684209399633846,0.09462288168274786,0.17661522090242246,-0.10575878997263624,0.015484067641580529,0.03913003272774176,0.0616588699024094,0.09680862071829051,-0.05813842130022821
COV644,0.006838375978039507,-0.2492805968098671,0.09060226824567455,0.04317018452802293,-0.03201219836487627,-0.005097439386715379,0.10790753692835962,0.013864175649352595,-0.06487476454778561,0.02012030551790063,-0.05604619134383994,-0.08213138883368044,0.06553246849026659,0.09765861838391911,0.010028888664116858,0.08353776361855969,0.11792787074401379,-0.00572042555445762,-0.06513747490189371,0.1789243185166462,0.006302741232266295,-0.08463373240822927,-0.0371657014264456,0.0023658200524487904,0.02959884015382165,0.19000018401664523,-0.06216574939907099,-0.10880481490538477,-0.08142898538540361,-0.17808518422406477,0.05386289682617981,0.14824962029841138,-0.13575613469865866
CW2,0.00460964097358096,-0.17630725820714757,-0.10470046719316274,-0.054505137584419314,-0.018063070870898437,-0.11045933785892968,-0.056085749101792794,0.12930056078135282,0.36391786566222256,-0.2677555854336474,0.11201701250655133,0.07871545476567025,0.07798595271241798,-0.05565442357691726,0.043084096792309935,-0.17032307217870513,-0.0041648133183273105,0.036632266797217025,0.10040412169710136,0.003866013506021393,-0.12809069721650448,-0.09686433554402452,-0.03960689886695426,0.041254109073633555,0.13940642666622097,0.046059050739922315,0.0424558285070929,0.05523741612065492,0.014037028941745435,-0.25393187759344005,-0.07671921162176093,-0.08097118121221544,-0.05700114841335477
DANG,-0.010996347697562362,0.18812819672350165,0.17529717549360868,-0.011635741566765662,-0.06350287899889916,-0.1828031262250181,-0.0800736905252721,0.023539795109521245,-0.04265559950732623,0.1350741477014875,0.01965826803870352,0.02141968049926337,-0.062249163632769514,0.06887751658443778,0.06133690650434411,0.02583682440177892,-0.06828435757737265,0.08466106039205296,-0.12543192922815644,-0.01199158472933916,-0.030322623084118698,0.16418084545666875,-0.11091070384905638,0.05296853603151931,0.058031915941488904,0.005573603875689292,-0.16751987918784536,0.16529018469683826,0.0024303111645855597,0.06201500058298019,0.043200155580640553,-0.03375068640848765,-0.20350408144703647
DAOY,-0.01256450642214171,0.34430094816115203,0.09603553348437785,-0.04219656349465914,0.19342792773320513,-0.04794572524455148,-0.062302096198761744,0.060606386898871066,0.019284501882616396,-0.06197322535716413,0.03603618549921118,-0.004170735559465432,-0.11119183531039015,0.1071089185680886,-0.042454934219318084,0.07767388331923507,0.0037440502339995464,-0.11556869732417409,0.08813984853576919,-0.07110219198859162,0.04468433471356419,0.00636464273207319,0.0030515130704905982,-0.05331097832210895,0.02370997508866835,-0.09534662615197145,-0.04016707244454418,0.06795618492969521,-0.010730347555459171,-0.13127734170587843,-0.02221959578756597,0.07214771275353962,-0.07576896141645797
DBTRG05MG,-0.008678987430426182,0.16139696191059258,-0.021355464524633175,0.0031593651277930157,-0.04458072081320421,0.22388189581975562,-0.055114629926973094,0.0006185825753415202,-0.05783178065913374,-0.027640653008621452,-0.16544473694305237,-0.01780807042623503,0.08317223448793838,-0.12383164601264407,0.06304163884935227,0.030631835199862907,0.06648608677137187,-0.10669304959664382,0.07010081774742317,-0.07221179654609207,-0.045121123176600865,0.060039055691447615,-0.025554267803775416,-0.001871511654807488,0.06368768355801936,-0.06252914253286096,-0.035803874026874086,-0.0391826550504346,0.05911085863446782,0.031368324306650625,-0.010259697999088874,-0.010827170643041627,-0.011202962509427457
DETROIT562,-0.005786700352251449,0.3451040053882662,-0.17807557890515752,-0.03797323046230539,-0.15150061772633464,-0.09390296761854386,0.006469571875289954,-0.06938779354122225,-0.026889409164864486,0.08703315006956984,0.09861133318672646,0.02009379738902023,0.017670672507967645,-0.04608687923878251,-0.006324664368479054,0.05628046727570345,-0.12901264995635617,0.0644514714882674,-0.10290279524002534,-0.032524325676035644,0.035838619901192414,-0.012417570243734221,0.11886853074726418,-0.0021192036469991327,-0.15717868450849723,0.06298276381178013,-0.0007003308704508759,0.06999344238531964,0.1855076474988409,-0.07459327553997144,-0.014983737348562192,-0.10968052954224544,0.0859191581963518
DKMG,0.002289695418113071,-0.22228927673097515,0.03857487005912277,0.03886353738657022,0.11829232371850337,-0.010317689567997336,0.00765660758456646,-0.03442112855281748,-0.04656433042563146,0.014422077974709336,-0.056735096095315546,0.04759985267125964,0.05322999779943846,-0.13587200068729632,-0.0224769623645557,-0.010137467074006189,0.07133574005662588,-0.11022940290683976,0.029071465154296997,-0.19609399555677973,-0.15447948681260992,0.07721135069452557,-0.03350530439812652,0.017050668683630494,0.07309689693615595,0.03881429537084466,0.07075434946173884,-0.0013723701533300706,-0.08810410922268636,-0.012738310099287989,-0.005999789866845928,-0.03581879720197342,-0.023883531160154715
DMS114,0.016628215324801618,-0.34590886868306003,0.2155061599951784,0.02974061676289569,0.07396763789754668,0.0026485399868893173,-0.15677378596072192,-0.10395367814981454,0.04810503310150648,-0.04215808649146778,0.0774483706574866,-0.054152219868489664,0.1824388811491458,-0.07248178260912878,0.07981839917481989,-0.08293593561318349,0.03172728007701116,-0.06403351423640528,0.06902037897394914,0.06591642761855661,-0.09503980471140679,0.12225056892023256,-0.06019290151820109,-0.03454014543885291,-0.010801833301418644,-0.031005714586670743,-0.27803976271681685,-0.025971513340962836,0.061847884900448916,0.06161789274221485,-0.09321624604742845,0.052320525456325345,0.07626986627165698
DMS273,-0.016067565787248224,0.268743836451897,0.28660182330322975,-0.008617450180491246,0.06020318026056667,-0.05036607954155404,0.22212322395721956,-0.03547110587807023,0.05538472873039906,0.020980489444446873,0.042177596559274416,-0.013906049401922471,0.08569416918478957,0.15486499285399496,0.17202559945285237,-0.11699495306926043,0.00030426557442534,-0.0363394721170065,0.10001883566190484,-0.09588882014099978,0.18837124203791333,0.11300934289125933,-0.1353920791207038,0.1303133563779654,0.02352325997281101,0.11462082025979653,0.0016793139518657772,0.07194454974187957,-0.0959160433412643,0.012769083932586217,-0.06885372424805127,-0.06860643986502836,0.017071710249011832
DMS53,0.01654329911334262,-0.3543503695346376,0.08458882554002835,0.07806054259293196,0.1989427312033957,0.04050193973775324,-0.008651068851607697,-0.11181424590988924,0.24250880489494026,-0.14823888104111801,0.03977254467293435,0.010566361518160441,-0.11377119767020812,0.10348674380408551,0.079210845652865,-0.08211320443424727,0.07849575736420758,0.05159688203420852,0.02965311510645211,0.08976128902697854,-0.0028109259670116137,0.09720367794486633,-0.08588668973020352,0.1767780452675181,-0.0170724622309189,-0.06563167531485278,-0.06871767495837716,0.09984963910514409,0.188991147562782,0.016440270857725023,0.025127324662626287,-0.16315479745195186,0.04087003861321833
DU145,-0.0007860829677261254,0.03631152503418803,-0.06392375358460482,-0.010854861462873693,-0.001809358259444054,-0.08048917328402921,0.0020522022078385336,0.13924869173283144,0.09059558731944026,-0.12789842177210678,-0.1582503778586098,0.09353337916090627,0.082078067283467,0.07420042385673517,-0.05381836739052825,-0.016937823409557753,0.11058469986226266,0.009562715684473233,-0.117475992325306,0.052329901080673306,0.08094586155976795,0.02720124882243273,-0.0289147814470779,-0.10660425021383678,0.03228387716835903,0.03221008118955969,-0.022503138538129523,-0.07418003180384633,0.05406995865651798,-0.02411692081845828,0.029521634120669504,-0.0739025262247207,0.09472100330455015
EBC1,0.002567647991030076,0.10925543695674424,0.08999067852380432,-0.014869160547658591,0.03562845258720394,0.07062704687175186,-0.12700966632987531,-0.012730667019832581,-0.019406912564430882,0.11982303844735312,0.15515905239665045,-0.06729203129423024,-0.133732163465857,-0.08332781465230667,-0.27230194714257144,-0.0885534892525031,-0.11423850974276444,-0.1847195004085804,-0.15193379571218246,0.2064184808592068,0.025663615558976022,-0.022927879622040927,0.06696811872325313,0.08472390134653882,-0.1004068513224899,-0.04881259934882329,-0.16507653581748263,0.10367415901221894,-0.2479324113298546,0.01813150133352868,0.009297831456308555,0.07011578132400684,-0.0531318901561752
ECGI10,0.004910376633999792,0.013765379504435358,-0.08891600863620427,0.07242233768618118,-0.06345114827121055,-0.095656412996994,-0.024002870322054105,0.11669085526387939,0.024745672325535813,0.04711747528089935,-0.012583566836132137,-0.15690230283128428,0.12839122985702567,0.06873365622457475,0.012384992021480358,0.01447674319836242,-0.026062927811220216,0.10436832881141936,-0.09735459829281921,0.008286929225428277,0.01316765152825335,0.15181466928612655,-0.0276711390472325,-0.032943115510127303,-0.04144654794266294,0.08004840056944641,0.04189411036411384,0.01623559270370939,0.06129327162527321,0.015785474279209972,0.028357813556483567,-0.11947846295811111,0.06036572001481429
EFE184,-0.00788490588007065,0.24000464220440423,-0.24059718779646522,0.002602961622835145,0.04033493254160892,-0.07488524734731483,0.08720975608088094,-0.11010531315405471,0.0425042209714292,0.0016160349077552875,0.04050809206523974,0.14166869702381754,-0.08223576813538212,0.11982719514780114,0.10961325827949113,0.02269580199464583,-0.15317666904293134,0.02675274185034739,-0.011766565793462039,-0.028841767057177982,-0.07133877830415576,0.03652687459499612,-0.12483723448300077,0.01830169079835823,0.033520402230589864,0.0692456220755216,-0.02296144187561208,-0.014773431329418147,-0.06579583011228307,-0.07183647170809239,0.008269530141397936,-0.10336903913492497,-0.07827393687165982
EFM19,0.008053491445076303,-0.20050636866178062,0.19787002483882404,0.0621434540844804,0.13222415240402705,-0.02764328894692932,0.17415091881361974,0.10644617064411703,-0.010728493588285861,-0.033826549539626063,0.01674510220949506,-0.08432608357068858,0.029011544493543217,-0.06656222041754851,0.03264000557414874,-0.08447519644299942,0.01651025476490888,0.05315807183081754,-0.1007422675499773,0.00912193654687852,0.0050064194973342665,-0.03939913128824519,0.04130256206518117,0.09205759005481766,0.11625121661947811,-0.018880846161622947,-0.16323915179282983,-0.030261888735961775,-0.06595310802656308,0.023889081132835926,0.0057139094917699855,-0.029505691088103334,-0.00021421649904669997
EFM192A,0.018574824593912544,-0.38026622797879045,-0.18223119418355063,-0.0892872628847256,0.04450112159629938,-0.23301261847757634,0.21438562668136388,0.13576326700549918,0.020509610530299725,0.0370434822127711,-0.0918030298999313,-0.21211097637258558,0.04729273594273633,-0.05109556499304079,-0.027865616219284767,-0.12613507762735177,0.06124169538029722,-0.00016578263487895223,-0.08423577993029328,-0.09376151461514073,0.11788885099109955,-0.05593571010173466,0.07356606558231683,0.15787973124076335,0.03523472001966048,-0.18898678773501654,-0.0573716926426287,0.043110347476250574,-0.052863603024921324,0.024821450888254607,0.11136571831609328,-0.14598186231026358,0.12103234584685024
EFO21,-0.0028690129150679344,-0.12496822226966947,-0.4160274471181371,-0.14786047134093802,0.09078773444714366,-0.22302315895547417,-0.09305889137779345,-0.03401359344485697,0.012285507869215923,0.009412370608335186,0.10827008605340807,0.033993573615414906,0.0174653714950339,0.04180085101514209,0.05141950930465006,-0.14996485306712226,-0.009108879322329356,0.11466718476268753,0.03531591732446067,-0.14059710093142674,0.029633115618421694,-0.22000682872086888,-0.12674596770568353,-0.05998415215969178,0.12463437839509003,-0.09457506014062621,-0.17578972622111042,0.04365471288364639,-0.0359210242286432,0.09865293054708554,-0.18716730592804937,-0.03840442401484583,-0.020720149035010335
EFO27,0.0002318271690123395,-0.1732950790240308,-0.14678618010580666,-0.001888696877475899,-0.2417045824120476,-0.022927655725365047,0.192712248711149,-0.013074183146817363,-0.014259972465144962,0.038344283487319705,-0.05390316513415889,0.008917505623380286,0.024421180894242164,0.11370785722396452,-0.05535270344398817,0.020693244187350048,-0.04110102398748092,-0.08657231806798804,-0.07078546288298793,-0.05293338389510641,0.009309560032298077,0.03293971223184381,-0.06697311441136365,-0.07366979094311575,-0.03747095930049466,0.17281893844337756,0.07919062724274308,8.253051158197025e-05,-0.0652857384239809,-0.002220289743033604,-0.016555532475961615,-0.03526007421247341,0.011177961505722575
EKVX,-0.0044192423468066965,0.13302187105014884,-0.19927258013343377,-0.05516317064142825,-0.02723640644545756,-0.053250703689493945,0.055274908181380734,-0.07141705747833256,-0.04887497305220385,0.0893212124269013,-0.081658232686843,0.01529136484625587,0.0014588710759104466,0.000682900385907516,0.07506657971262203,0.02491648543188898,-0.08318253323956508,0.2048358422581616,-0.007782310599697229,-0.08132085662599513,0.039422121046235485,0.09229500262338608,-0.07349265069456203,0.030696204466729573,0.09954180075319892,0.006033886622490165,0.025828218336591775,0.0391610756364057,0.06433507890298054,0.029509662656368566,0.059536590627395566,0.06692389183378841,0.04045918687659217
EN,0.013843566225405881,-0.4780816883655379,0.1779792638273014,0.0315167258644824,0.03653016002804243,0.029243793779659348,0.19192939278589352,-0.0018179625639238907,-0.07169249599819724,0.026336961963665435,-0.11265855920989183,-0.11289080366512336,0.0010269431983529816,0.14184645364129225,0.03193907241150433,0.028386627369341774,0.0028393923300127667,0.053397763372018306,0.19559840963790184,-0.08643106302623048,0.017188416269721726,0.10118977074040719,-0.043278446044588796,-0.018289437400667657,0.04138774909193772,-0.03935069553710234,-0.07849655405198915,0.0685469827130612,0.003182489448025772,-0.03547802541788089,-0.00996552606668298,-0.0680383316560467,-0.13548101706631288
ES2,-0.01317411410093502,0.093292242912731,0.09483273893328426,0.01027184373021478,0.02820366695213179,0.054008839512093086,-0.07723453546336334,0.03187293197260741,0.06880423142986049,-0.06501534685389292,-0.10728626689814488,-0.14078703653744967,0.038239428789665,0.04796936279406446,-0.11987615143978823,0.03329037835944012,0.0868802663860466,0.007512966701705542,0.16783544568450887,-0.018780857477616823,0.13416912463178055,0.05874664527578696,-0.10118621290239228,-0.1933199170263493,-0.07099540335318305,0.041839989367010125,-0.0681425152133355,-0.0461194512606553,0.03297387776855609,0.10053223982834307,-0.015108883048252328,-0.1393589679986734,0.15369552556330396
ESS1,0.0040847242740382865,-0.02131225813319314,0.05344276004220433,0.03052458769811295,0.19614418731042982,-0.1202060689695291,-0.013002687804683598,-0.10123715877497122,-0.011805880330931332,0.058341253384331625,0.037608757624951916,0.06658312675117842,0.0670519189578489,-0.08550357890100632,-0.04089877414028598,-0.022553140847879946,0.16215199261835744,-0.03440155680099914,0.05406812541096326,-0.014600125965352777,0.10114537045345279,0.01689181692645032,-0.031143400433669737,-0.0014407624479842408,-0.14061855972099543,-0.21119421888298473,0.022326992196917465,0.0922818198745355,0.01359941751268183,-0.10603506728341879,0.02670060282123523,0.005039454080295036,-0.08997167677584933
EW8,-0.005299680301139702,0.24327745365629808,0.1421255348965299,-0.025525923767620126,0.15000537047200502,0.007228840803444008,0.05681681733051644,0.030753928415404884,0.08031737377635065,-0.04021463332946369,0.1090712435754173,0.12321920156003395,-0.061188818335320735,-0.011273370491243063,-0.11027204060466853,0.007893502175041986,0.02306360590108556,-0.11308479139440906,-0.04065615894438866,-0.10803204219022673,0.1027459960426354,0.034080338017233903,0.12506103752425074,0.1387619648377157,-0.018578943216108902,-0.08357790534700484,0.15593089432811783,0.0024432495952088616,0.04743190692069471,0.01751653140509857,0.08311606870461472,0.06315738724276462,0.006083536109183979
EWS502,-0.013277186839144478,0.2548964727150333,-0.007775345041402623,0.03137882305858498,0.010325477460388435,-0.04118129238973329,0.08074826467800982,-0.04080163032166923,0.03619153855459603,0.0066543062672834484,0.10718301326097292,-0.05966766071061426,-0.06624256087745611,0.07506208383575341,-0.04486135909291795,0.009813894689728186,-0.09528482036597177,0.020510855139442775,-0.008196242983183907,-0.08512265575704751,0.13815420744954376,-0.08026511288073858,-0.0590290149834067,0.049111371237841275,0.06668604435215696,-0.035579486040145755,0.004128271757226786,-0.036445799032361885,0.04909554424550952,0.02434855859887955,0.07868924575699948,-0.08269261372007627,-0.12335553568704775
FADU,-0.002787760733405333,0.1420922705943263,0.0038302816875553465,0.09387395563570419,-0.04848432118211524,-0.04285213785580606,0.0937910408549319,-0.04506639128075336,0.047833719911675274,-0.05261406294703448,0.17672036154341503,-0.08866983488067613,0.10561956548018986,0.10793771150373947,0.09264212496593066,0.011812914159370054,-0.16568625233173864,0.01313147137281097,0.0663198556052687,0.07827717792607684,-0.058596753118906504,-0.009818510622405605,0.05814457837341733,0.07792901025170336,0.09651291600355125,0.001159407769417791,0.17832168494368075,-0.011220512644445532,0.045024039577825206,0.02682118387461973,-0.004106877844100847,0.03282297498203502,0.08757493260293982
FTC133,0.0039381432833896605,-0.1273051149019611,0.006311361279409273,-0.1219240804440007,0.06333590513791071,0.1421748957223855,0.10509731873074755,-0.07945878919023257,-0.06509447907319477,0.04925976277080274,0.16063617412324546,0.12351296131592247,-0.0665535861879187,0.13808079210963123,-0.10472625216939081,-0.08207227949228577,-0.11754325587816564,-0.08792283588071854,-0.029682307799818026,0.14285518375146777,-0.013505954895244017,-0.038299002410229654,0.006016714704245823,0.11770343502075999,0.07933243951141834,-0.020439345194246603,0.09566198202250592,0.03236938960843175,-0.09433518050827927,0.04347920304583005,0.06511216298205741,-0.020741965691602093,-0.011060218151378243
FTC238,0.012757886285422125,0.03755827239223517,0.0365179135374675,-0.0487390047946456,0.2874116804798056,-0.08719385493887626,0.04522471403200009,-0.07368419439390123,-0.15797844221904797,0.15098529530585186,0.09532893671170516,-0.012591052206043948,0.0750869646382541,0.04545707883050074,-0.005832890766738155,0.034373627597386436,0.0341978488473116,-0.03940197578045913,-0.05550089015329139,0.26751861489063133,-0.15604630300655956,0.06762173018340357,-0.05869121176395382,-0.10844627884146671,0.12467226990997574,-0.1406138819540963,0.02124669763291636,0.020448959705036643,-0.10907517161617154,0.06623906489811648,-0.0463440085591098,0.0867285029330543,0.011131978045714289
G292CLONEA141B1,0.01515886417500679,-0.35421620482039173,0.07547290804813575,-0.006818833621207068,0.12130438951294331,-0.026657961508345006,-0.14560322562763114,-0.20451920035040358,-0.14213857695019927,0.15773767182891305,0.0006062048365510981,-0.09952882000923421,0.048869582957009404,-0.14356398117755226,-0.1404973359852174,0.1689070388123322,-0.25856453004562485,-0.10838069194838619,0.25272051871843393,-0.07329404864773234,0.03442428028129294,0.0007975572984350902,0.10508669134165725,-0.1682509293472816,-0.17964444811392027,0.09020258307123971,0.03213151865462314,0.035265339028935576,-0.03264329777104053,-0.06694927017472878,0.07952304293681535,-0.03660660503757704,0.20328055280734664
G361,0.0016427601569450401,-0.1080487244592499,-0.04000645751067795,-0.016736673526735295,0.0029728160192997156,0.12072756310760721,0.18130094016180984,-0.144543738279705,0.1375906851269865,0.05492246130890759,0.15693351172129136,-0.2961025770466418,-0.03537890345574586,-0.2275822388234002,0.2707525858618373,-0.004543022257579791,0.15533386127446358,0.09973740276324242,-0.15379869882200153,-0.055961754315530604,-0.04115350536903816,-0.05181430568053442,-0.105479761486845,0.09900086516014245,0.17310378405224738,0.04446587330557649,0.15635957041864848,-0.12893598876585582,-0.07877163187274394,-0.02305758804051251,0.14302144883742793,0.0916175152906435,0.11021768964997797
G401,-0.019546904892735424,0.3902793527402648,0.2057678814332709,0.03948293454189138,-0.13746741057377168,0.04076834982189364,0.08293915266718543,-0.10292436619357544,0.14077301947770404,-0.048413485176606805,-0.22084889948252548,0.05348561963115493,0.03047418840080821,0.04947280894648252,0.13471246316358437,-0.09481084949927018,-0.01201451315345554,0.21579555345615142,0.08828887655061433,-0.0749608383651965,-0.21318433233305636,-0.07327369991088399,0.08326917785977125,-0.048944489503849976,-0.0019133045021726266,0.061918417582382264,0.16689806424018502,0.18344046197095112,-0.08067788790471218,-0.016686801374410934,0.12308099545190923,0.01575780138765201,-0.20791458430324572
G402,-0.010782335871492573,0.325206826947951,0.19539762903928523,-0.07949055451707693,-0.057854452807983424,0.11741838594602029,0.18163305061073262,-0.16843043289275134,-0.08002681532823888,0.11304213510534683,-0.23595821486012072,0.23555289846520427,0.09770880328966731,0.06935573347298808,0.08170448503244036,-0.11263736105880667,0.11382548467747927,0.09225348225027388,0.09032659031854841,-0.02414072696743462,-0.10994405123044566,-0.09169590616932034,-0.07421920225809499,-0.10848733539715856,-0.030085877017095114,-0.02089080711897478,0.008485749209665824,0.2357768769200402,-0.02688188803144875,0.003114836056295598,-0.042960990240887016,-0.11203094147819383,-0.09461717952368942
GAMG,-0.00032795907652476765,-0.054505485099656685,-0.03863935739049174,-0.10654029779229722,0.2813443759791761,-0.13259733086536046,-0.036509422507712094,-0.060371804819511876,-0.056845993565103246,0.11079838794538112,-0.03846210198671579,-0.02464275960069935,0.13851727822625728,-0.09614212204236823,0.0791002252825174,0.06349757157784483,0.21653539611362915,0.09094704070954021,-0.14997574041998665,-0.05433752349940071,-0.013426426875017211,-0.05332277738690116,-0.06014751249905992,0.05033139062963908,-0.08752902086901983,-0.0734284437759311,-0.08218072203935191,-0.06832047884571188,-0.029980939503559043,-0.09152067870582364,0.06434529186932637,0.11287614057450407,0.05687445399064929
GB1,0.0020174942656223586,-0.22336930994188872,-0.054311731647134015,-0.09938675023365072,0.1905077951210004,0.09768282333181981,0.0309403456889986,-0.03835515938678011,0.05487430663185733,-0.05864445035831659,0.1290792774317623,0.09191652802021615,-0.047828323399161286,0.003136158400755843,0.01989451827003046,0.12858675037239084,0.02496314278154,0.06316118995433181,-0.04155495806726814,-0.1395271047855912,0.03713367688953951,-0.0036161989563037148,0.0022270874745553065,0.13707862018413028,0.20166035963364345,0.05497951634981513,0.09320656015012238,0.09179857972449937,0.008026488945106425,-0.1498300837973489,-0.003975868899260402,-0.07484904949336732,0.13541244755341925
GCIY,-0.006129037595160672,0.1493790229252376,0.04235400979114554,0.04300162382985801,-0.06864455877511057,-0.10807230353191984,-0.08250392426189086,0.07990820740884697,0.07730753053668123,-0.08515761042260035,0.04074536559924776,0.022472343502176834,-0.1429874610838827,0.046050263903344706,0.06105660657030082,0.17379508783994949,-0.049323515991140966,0.022135219650582946,-0.009853181032279373,0.03663112050515408,0.001813504128597672,0.024249274839696446,-0.024104659756959194,-0.06155884222781942,0.14981969850444785,0.015807837131151928,0.025701414898600526,-0.03978028265562222,-0.13575902188010094,-0.04604291427620999,-0.06021671786982534,-0.02754430189093918,0.04093661513174712
GCT,0.0031323184786610707,-0.12353168849019125,-0.2962382552087169,-0.029981390200568274,0.19264926538354266,-0.02193911682161029,0.05780035382061447,0.02769554822328498,-0.137338813957184,0.0876731078543838,0.08735391503709129,0.048871124756259175,0.012635911281794908,0.07719361085571826,0.02604801717059553,-0.11946514371247204,0.0299964829387972,-0.09334470729306943,-0.04171200011556349,0.03753870085537488,-0.09704858224922619,0.0570589645313402,0.047224063464643105,0.01872702078880454,0.013130146239449195,0.11880025089513077,-0.13752704002166635,0.04804903243020506,0.13132205480328576,-0.028914614401382075,-0.02925875047720645,0.07159278529374215,-0.009749895592563278
GI1,-0.013181560312025666,0.07523498970648727,0.20463651581456999,0.09389126025626421,0.21231331533499517,0.02571701315359678,-0.054430280872358155,-0.22109373472610164,-0.01687801707181563,0.06588975567640569,0.16234234837111675,0.027895240016713008,-0.07487437440458393,-0.0668244853965653,0.1659285135673345,-0.04576358764943694,-0.11720966247132926,-0.04958924094452116,0.11192267728768378,-0.08308164388837308,0.05914189415685274,0.02335534558473024,-0.16255341737216317,0.11964887975257912,-0.004832622846951974,0.16111570736518027,-0.0008906871975060326,0.1618552566644931,-0.01854459694735585,0.044301414144005444,-0.0762986573822843,-0.018434712551635684,-0.07001190553050501
GMS10,0.008938885310999515,-0.33725209173605075,-0.046485818065843273,-0.023287129588427727,0.025938724510487104,0.0003890844180447306,0.006076646431064779,-0.09611638446058193,-0.08737777706612138,0.1734532073835751,0.04283501358156138,0.14460642797686096,-0.04643085024444476,0.012027169263599586,-0.09791457315430087,0.08712877831804366,-0.07712001981612636,0.11122585613223657,0.1394681892789566,0.04720164344830887,0.0471735039149942,-0.06396935914748254,0.18171180163096842,0.04186519835132475,-0.05110706830225058,-0.05459926098949872,-0.07666189391032387,-0.010247789216044998,0.007759343362071279,-0.05805111128413205,-0.028114380516999243,0.021555537033113338,-0.05828273664963858
GOS3,0.00520387365413462,-0.27308736126617694,-0.07408813436236708,-0.10012721488443044,0.09329897160634297,0.06119029959407743,0.008820423823602017,-0.06320602550714924,-0.11019188869146766,0.037852417450892614,-0.049707195132090064,0.10305808349999872,0.16498053826027972,-0.22981308712749735,0.0647526743670588,0.03053298403097292,-0.04421701398188353,0.05650683769059538,-0.021959862635412924,0.06854367095625957,-0.017197461128247913,-0.025239656114823195,0.11186071764391077,0.06546929384566258,0.11848293372334262,0.06761201836780616,0.03765730010293124,-0.03753972957513731,0.04197640608417171,-0.04899517409718026,0.05417788259678216,-0.15922225396169765,0.06886869253758265
GP2D,-0.016492731070279477,0.38784988400818393,0.3060671729030884,-0.008749216629798676,-0.010273513211108873,-0.03529882928897586,0.14591758399568214,-0.0030346387395512996,0.029585699850345037,-0.034741188672956926,-0.037231804204954394,0.0036649000521161985,-0.09890132154099275,0.02972522103900197,0.0705181976969657,0.004499723205932594,-0.12018088276152125,-0.13839152875633443,-0.005572166033237997,-0.14368123578802983,-0.03211857210820764,-0.030746152776037216,0.2001766252885914,0.027113729421143293,-0.12938437736662678,-0.03891972070399569,-0.018993714919880438,0.0285449026822491,-0.2049940977592887,0.016172577383040437,0.21516266573406975,-0.02137087808619346,0.019534869693878496
GSU,0.015440075219886586,-0.2832157437660641,0.12017332464357844,0.28954968788586277,-0.05378805892863586,-0.09132781159090529,-0.28643886028839205,0.22874775236731318,0.038167219831613815,-0.12498362925428606,-0.2075913363791434,0.11416696147542234,0.22340463034487715,0.15777511757806612,0.32107147313001616,0.012703782912335048,-0.20658596971740278,-0.13502866321044762,-0.2182484688897018,-0.004474415019645405,-0.0339164907622408,-0.26045435222226365,0.18622013460035206,-0.0010839949599219388,-0.03710779067025309,-0.16361108510179254,0.20594759084778008,-0.029308224530694826,-0.19309291436245024,0.10102515805223657,-0.42986685141340175,-0.10167613783088869,0.07818037602608889
H4,-0.006956656832956173,0.00524090581567052,0.06113522823118998,-0.032240651065284016,0.2934423006503516,-0.14188836057138723,-0.12555472629396072,-0.08582197231703804,-0.03919422804685478,-0.023447497630364647,-0.006459186058575203,-0.12436429643299245,-0.3008468083726134,-0.04129195835466145,0.23026416613911715,-0.15027787444988971,0.07661968895058506,-0.150157693859159,0.04985597480454977,-0.057562893990730196,-0.6673630659733588,0.17384058581095393,0.1092358336076975,0.19849395731389963,0.21030588232896366,-0.01279845933860477,0.08546575349592131,0.10262739849505968,0.0015688689009265217,0.16327116364839156,0.06962057571871806,0.14677630108312992,0.0024017921545908165
HARA,0.008825092689728285,-0.10197070282176925,0.002600366856601757,0.04028367607145583,-0.030162514709359305,-0.2327600573333027,-0.15728418746466155,0.1607342025730214,-0.1011117224031719,0.13175823083996505,-0.011680074290969797,-0.05531169849181099,0.009600893094991512,0.08814227908105281,-0.08929448719549997,-0.02870194615491102,-0.14765024319597916,0.066699200282903,0.1319758652168106,-0.03276883797657705,-0.007092864832103657,0.11960272826430904,0.277948493328188,0.064985988455985,-0.02154998553005186,0.20380242261044723,0.08247903217514543,-0.06701165064256606,0.19656590869626914,-0.025096541064689965,0.14067138769614582,0.01514553234138582,-0.09598208733585722
HCC1143,-0.003109512577339249,-0.07699312873572663,0.04151210098683627,0.09011989870980709,-0.13576770123550666,-0.2190662163692121,0.017827451368647742,0.04209043888986851,-0.09255504212826708,0.009902897409547057,0.0633010116566739,-0.06761766490009119,0.03923113227198305,0.02285685669984683,-0.10789871845598256,-0.013089838579171842,-0.03729701976272713,0.04327049121943468,0.039941837871130835,-0.09553670465259514,-0.016422127200709333,-0.0061876095652046515,-0.02771441496742776,0.0367336613184266,0.07755345908351385,-0.06958395908052788,0.09335134294666739,-0.06655204210434827,-0.08897552538425924,-0.04746727544857182,0.03770420488428327,0.04471207455660036,0.12185316487290222
HCC1195,0.0037090209525081136,-0.15070279755297566,-0.024071010420490868,-0.007619444057877268,0.09700532557192236,0.11576859653483759,0.07667044431425547,-0.05890301559855142,-0.07809970391745745,-0.0579140620522537,0.08849775073244348,-0.015224583916023018,-0.010311215567259545,0.1193488832620648,-0.05168355632236669,0.004238068938091182,0.013532951430755473,-0.08426378928789091,-0.022257195665010127,0.06060103994290808,-0.0959135425346234,-0.24129663586736658,0.1095766635417294,0.00010674640617148785,-0.10776852308425781,0.16494801462289735,0.037942258374486205,-0.17554735437102223,0.1013599707749944,-0.1608711007684917,0.09468427437689175,0.002419957450318332,0.12832161151558616
HCC1359,0.013964864585961936,0.03103086493721839,-0.07804819902687848,0.02711413654393829,0.31136718122167273,0.04038861650378435,-0.09963053269423938,0.12283785452110262,-0.1276000917309196,0.03030035520515062,-0.04465171753903621,0.00019390649364397418,0.11944607396387863,-0.11049068202243657,-0.08109284544312778,0.03666288880685237,0.027732733561978022,0.09895802620931213,0.0005443377912347662,0.07269556036814132,-0.09957418869552527,-0.02013144208520908,-0.006415786959849387,-0.04425497301175993,0.12086382965315969,-0.07450382733824881,0.0025338423775981642,-0.08599436734949732,0.05395241120652047,-0.08301179747383053,0.06337295894464715,-0.05475326035670247,-0.0511798871045147
HCC1395,0.010982588532621722,-0.3337575351427147,0.11219543027599677,-0.06835183191674453,0.08986013321675149,-0.015537205758369428,0.06398431677384103,0.0970157457577285,-0.12338869839031041,-0.013508400693156418,-0.05217193739412611,-0.011558802111390907,0.049517904927567344,-0.032381217906048546,0.04497541729359297,-0.12411688087071454,-0.16279130167654865,0.13950744732756554,-0.00977262466690382,0.0033294595116915926,-0.049738719350531604,-0.1570293923352225,-0.08742401392458315,-0.035390783429504344,-0.00927836235757903,0.07522126766479736,0.1608615280469419,0.09430417327814455,0.22370192772394368,-0.06929553279025226,-0.0601613371910303,0.047775242891544514,0.18531307886819207
HCC1419,0.00883117976810464,-0.23491996968541756,0.015154884610100654,-0.12675016585510882,-0.27570916566932663,-0.1466176195267746,0.2558983721071451,-0.07664253568309594,0.11390922872754974,0.11904464031426093,0.14947589649290297,-0.026861194532635135,0.04068957945510755,0.08614253830528394,0.10733585495563579,0.03038314675774919,0.0822069038609042,-0.06322655225883372,-0.05538462875719432,0.02902918991624748,0.024113517160034428,-0.12152474329730849,-0.08619072101865749,0.025776564194792566,0.12595390330408746,0.09384252347447565,-0.04011214670969527,-0.1192525675780505,0.0423740069969499,-0.11091115689648606,-0.05291525698339164,-0.043471318521009016,0.026409513223462126
HCC1428,0.008161036013163852,-0.27895208946456496,0.004405244459473808,-0.01488578243578893,0.07520857666799875,0.09829520867753087,0.10536143495876886,-0.0034864920513910194,0.025984970390944256,-0.04467502093497463,0.02960403323033461,-0.0626872803063229,0.05836199996164385,0.06777118188711945,0.05222324389991233,-0.0413771732534662,-0.020512083152750733,-0.17779364542268325,-0.1380037756090589,0.06316921801316314,0.03728139355746539,0.05404460133337101,-0.004281262820012777,-0.0367756263768872,-0.013406814465448783,0.08061972086103514,-0.11431987623393425,0.044684474589721274,0.05986606971942024,0.053861975862447106,-0.04220184995605487,0.105544759300533,-0.02552553197272273
HCC1438,-0.00722151103361689,0.2995616307829815,-0.01906774133133418,0.04934122437642245,0.31029685235952675,-0.07799766137855127,-0.1427641713825087,0.11876582275518852,0.021946789786296165,-0.0813907347157823,-0.08576448834436484,0.052080514637537476,0.03826609025804748,0.03971191108238325,-0.04868924045265089,-0.06661631630893977,0.052674572527690824,-0.08621789151829333,-0.09292241840613004,0.09199653454898096,-0.123093526264692,0.02397797259564905,0.06114213762311985,-0.013706780463313424,0.11544263852370487,-0.13073666257751168,-0.093870165584118,-0.09945015285067424,-0.053079028832269524,0.041049483081123,-0.12493052641411678,0.0038020856257849197,0.047955379807714166
HCC15,0.0023647843727834413,0.12183133444814367,0.0215360908566701,-0.04104713609127831,0.09492142532264577,-0.051075188825757345,-0.0009815182162905087,0.08161677515641125,-0.11093034157921965,0.07386611460289191,0.003571663528007675,0.03223709447912559,0.008644444199036766,0.005473787786848345,-0.01855675224906541,-0.09569837286193292,-0.07437501937563007,0.02792343582879957,-0.12858328264685817,-0.10073939245967153,0.008644163121595846,0.14990157467198592,0.1367804661587695,0.06455104777822301,0.0880175065452806,-0.09064433052281475,-0.11991513534732474,-0.03864543299284523,-0.07702070237844308,-0.04168325628389232,0.011061924414211435,0.10431702468250756,-0.1151922299243987
